{"learner":{"attributes":{"scikit_learn":"{\"_estimator_type\": \"regressor\"}"},"feature_names":[],"feature_types":[],"gradient_booster":{"model":{"cats":{"enc":[],"feature_segments":[],"sorted_idx":[]},"gbtree_model_param":{"num_parallel_tree":"1","num_trees":"300"},"iteration_indptr":[0,1,2,3,4,5,6,7,8,9,10,11,12,13,14,15,16,17,18,19,20,21,22,23,24,25,26,27,28,29,30,31,32,33,34,35,36,37,38,39,40,41,42,43,44,45,46,47,48,49,50,51,52,53,54,55,56,57,58,59,60,61,62,63,64,65,66,67,68,69,70,71,72,73,74,75,76,77,78,79,80,81,82,83,84,85,86,87,88,89,90,91,92,93,94,95,96,97,98,99,100,101,102,103,104,105,106,107,108,109,110,111,112,113,114,115,116,117,118,119,120,121,122,123,124,125,126,127,128,129,130,131,132,133,134,135,136,137,138,139,140,141,142,143,144,145,146,147,148,149,150,151,152,153,154,155,156,157,158,159,160,161,162,163,164,165,166,167,168,169,170,171,172,173,174,175,176,177,178,179,180,181,182,183,184,185,186,187,188,189,190,191,192,193,194,195,196,197,198,199,200,201,202,203,204,205,206,207,208,209,210,211,212,213,214,215,216,217,218,219,220,221,222,223,224,225,226,227,228,229,230,231,232,233,234,235,236,237,238,239,240,241,242,243,244,245,246,247,248,249,250,251,252,253,254,255,256,257,258,259,260,261,262,263,264,265,266,267,268,269,270,271,272,273,274,275,276,277,278,279,280,281,282,283,284,285,286,287,288,289,290,291,292,293,294,295,296,297,298,299,300],"tree_info":[0,0,0,0,0,0,0,0,0,0,0,0,0,0,0,0,0,0,0,0,0,0,0,0,0,0,0,0,0,0,0,0,0,0,0,0,0,0,0,0,0,0,0,0,0,0,0,0,0,0,0,0,0,0,0,0,0,0,0,0,0,0,0,0,0,0,0,0,0,0,0,0,0,0,0,0,0,0,0,0,0,0,0,0,0,0,0,0,0,0,0,0,0,0,0,0,0,0,0,0,0,0,0,0,0,0,0,0,0,0,0,0,0,0,0,0,0,0,0,0,0,0,0,0,0,0,0,0,0,0,0,0,0,0,0,0,0,0,0,0,0,0,0,0,0,0,0,0,0,0,0,0,0,0,0,0,0,0,0,0,0,0,0,0,0,0,0,0,0,0,0,0,0,0,0,0,0,0,0,0,0,0,0,0,0,0,0,0,0,0,0,0,0,0,0,0,0,0,0,0,0,0,0,0,0,0,0,0,0,0,0,0,0,0,0,0,0,0,0,0,0,0,0,0,0,0,0,0,0,0,0,0,0,0,0,0,0,0,0,0,0,0,0,0,0,0,0,0,0,0,0,0,0,0,0,0,0,0,0,0,0,0,0,0,0,0,0,0,0,0,0,0,0,0,0,0,0,0,0,0,0,0,0,0,0,0,0,0,0,0,0,0,0,0,0,0,0,0,0,0],"trees":[{"base_weights":[1.568543E-2,3.6960127E0,-2.5049987E0,5.2720065E0,2.0196772E0,-1.0462002E0,-3.7324684E0,5.9226174E0,4.2543664E0,2.730279E0,1.3384861E0,-2.4190925E-1,-1.837221E0,-3.6546226E0,-9.852492E0,3.2774588E-1,5.632266E0,4.8007407E0,3.977234E0,3.083759E0,2.2654436E0,1.74666E0,1.033747E0,1.5761518E-1,-7.123076E-1,-1.504234E0,-2.0638936E0,-2.995802E0,-4.228871E0,-1.2658524E1,-7.0973263E0,2.931532E-1,2.6621348E-1,2.0358868E-1,2.4473381E-1,4.0759206E0,3.6465588E0,3.188378E0,2.596058E0,2.4411068E0,2.1203957E0,1.7073863E0,2.368967E0,1.2230828E-1,1.0607108E0,2.017815E-1,-1.1967697E0,-6.617664E-1,-1.1213056E0,-9.60368E-1,-1.5794361E0,-1.9264519E0,-2.4248195E0,-2.7579691E0,-3.450218E0,-1.9748743E-1,-4.389375E0,-7.1383923E-1,-2.3023652E-1,-2.7626164E0,-8.624012E0,2.0859753E-1,1.8213843E-1,-2.3990133E-1,1.9539428E-1,3.464988E0,3.072318E0,-1.989745E-1,1.4361276E-1,4.507605E-2,2.4665098E0,2.1345239E0,4.6659034E-2,1.8023404E0,1.5331907E0,1.4018048E-1,1.7890158E0,7.5305685E-2,-2.0460524E-1,1.1190646E0,5.731301E-1,4.8454887E-1,2.680572E-2,4.5983717E-1,-4.994115E0,-7.309798E-1,-4.8266944E-1,2.9338975E-2,-1.2272087E0,-2.0433505E0,-7.536598E-1,-1.6142117E0,-4.56389E-1,-2.7148082E0,-1.8730114E0,-3.61001E0,-2.172149E0,-2.4588122E0,-2.846635E0,-3.4088705E0,-4.748908E0,-4.347392E0,-2.6757014E-1,-3.1269312E-1,1.1335476E-1,-7.6024646E-1,-5.6505413E0,1.7916946E-1,1.3312502E-1,1.5544866E-1,1.1208504E-1,1.660982E-1,1.2045925E-1,1.1028152E-1,8.839958E-2,7.611091E-2,9.659638E-2,3.3112716E-2,8.1279166E-2,4.1311678E-2,9.836949E-2,-8.4459335E-2,1.1351635E-2,6.1361827E-2,3.982928E-2,-5.544565E-3,5.944515E-2,1.4592844E-2,4.080298E-2,-1.8680546E-3,6.1675142E-2,4.7995415E-2,3.9901673E-3,-3.8725927E-1,-1.4087419E-2,-2.4304038E-2,-4.3541458E-2,5.167508E-3,-2.879616E-2,-9.730127E-2,-5.306626E-2,-1.32173E-2,-1.4436547E-1,-4.11879E-2,2.744258E-2,-9.1911145E-2,-7.4014954E-2,3.1935258E-4,-5.2407872E-2,-9.696358E-2,-1.6941905E-1,-8.856839E-2,-1.02845065E-1,-5.1570266E-1,-1.3151334E-1,-9.2698716E-2,-1.2342378E-1,-1.2520711E-1,-9.522811E-2,-1.4446491E-1,-1.18438505E-1,-1.7120394E-1,-9.623426E-2,-2.7622423E-1,-1.0364294E-1,-1.4813237E-1,-2.1789873E-1,-7.2120555E-2,-3.328997E-1],"categories":[],"categories_nodes":[],"categories_segments":[],"categories_sizes":[],"default_left":[0,0,0,0,0,0,0,0,0,0,0,0,0,0,0,0,0,0,0,0,0,0,0,0,0,0,0,0,0,0,0,0,0,0,0,0,0,0,0,0,0,0,0,0,0,0,0,0,0,0,0,0,0,0,0,0,0,0,0,0,0,0,0,0,0,0,0,0,0,0,0,0,0,0,0,0,0,0,0,0,0,0,0,0,0,0,0,0,0,0,0,0,0,0,0,0,0,0,0,0,0,0,0,0,0,0,0,0,0,0,0,0,0,0,0,0,0,0,0,0,0,0,0,0,0,0,0,0,0,0,0,0,0,0,0,0,0,0,0,0,0,0,0,0,0,0,0,0,0,0,0,0,0,0,0,0,0,0,0,0,0,0,0,0,0,0,0,0,0],"id":0,"left_children":[1,3,5,7,9,11,13,15,17,19,21,23,25,27,29,-1,31,33,35,37,39,41,43,45,47,49,51,53,55,57,59,-1,-1,-1,-1,61,63,65,67,69,71,73,75,77,79,81,83,85,87,89,91,93,95,97,99,-1,101,-1,-1,103,105,-1,-1,-1,-1,107,109,-1,-1,-1,111,113,-1,115,117,-1,119,-1,121,123,125,127,129,131,133,135,137,-1,139,141,143,145,147,149,151,153,155,157,159,161,163,165,-1,-1,-1,-1,167,-1,-1,-1,-1,-1,-1,-1,-1,-1,-1,-1,-1,-1,-1,-1,-1,-1,-1,-1,-1,-1,-1,-1,-1,-1,-1,-1,-1,-1,-1,-1,-1,-1,-1,-1,-1,-1,-1,-1,-1,-1,-1,-1,-1,-1,-1,-1,-1,-1,-1,-1,-1,-1,-1,-1,-1,-1,-1,-1,-1,-1,-1],"loss_changes":[1.04523414E5,1.20885E4,1.1969566E4,1.5363125E3,1.0710264E3,1.9442439E3,1.6925234E3,2.2567969E2,1.1994141E2,1.709209E2,1.3921936E2,2.8526608E2,1.1285205E2,1.3436641E3,2.5608154E2,0E0,3.8183594E1,1.2695312E-1,4.564453E0,2.247168E1,6.4194336E0,7.376709E0,1.5799927E1,4.9252724E1,1.3487518E1,2.3914307E1,4.0233643E1,1.7078027E2,6.7578125E1,2.0606714E2,1.4047998E2,0E0,0E0,0E0,0E0,3.487793E0,3.5409412E2,4.784668E0,2.1836023E2,5.5354004E0,2.1796875E0,4.4952393E0,1.0788879E0,9.486002E0,1.722815E1,3.9319912E1,1.6630832E2,7.248474E0,1.4351013E1,1.5865364E1,2.0536255E1,2.2557129E1,6.5847046E1,2.1754883E1,1.3657227E1,0E0,2.4476562E1,0E0,0E0,1.5505647E2,2.6422546E2,0E0,0E0,0E0,0E0,3.1368408E0,3.5170898E0,0E0,0E0,0E0,1.3786621E0,2.5576172E0,0E0,7.2771606E0,1.2293762E1,0E0,4.9941254E-1,0E0,1.1423344E1,1.8528992E1,2.9723766E1,1.9070404E1,3.8338646E1,3.4302597E0,1.00727554E2,1.4750305E1,9.779568E0,0E0,6.099922E0,1.6938465E1,6.6882668E0,1.2935913E1,5.040285E0,1.3791473E1,7.711914E0,2.4744293E2,1.4507935E1,1.3220215E0,9.857422E0,5.4472656E0,1.892102E1,3.3691406E0,0E0,0E0,0E0,0E0,4.893927E1,0E0,0E0,0E0,0E0,0E0,0E0,0E0,0E0,0E0,0E0,0E0,0E0,0E0,0E0,0E0,0E0,0E0,0E0,0E0,0E0,0E0,0E0,0E0,0E0,0E0,0E0,0E0,0E0,0E0,0E0,0E0,0E0,0E0,0E0,0E0,0E0,0E0,0E0,0E0,0E0,0E0,0E0,0E0,0E0,0E0,0E0,0E0,0E0,0E0,0E0,0E0,0E0,0E0,0E0,0E0,0E0,0E0,0E0,0E0,0E0,0E0,0E0],"parents":[2147483647,0,0,1,1,2,2,3,3,4,4,5,5,6,6,7,7,8,8,9,9,10,10,11,11,12,12,13,13,14,14,16,16,17,17,18,18,19,19,20,20,21,21,22,22,23,23,24,24,25,25,26,26,27,27,28,28,29,29,30,30,35,35,36,36,37,37,38,38,39,39,40,40,41,41,42,42,43,43,44,44,45,45,46,46,47,47,48,48,49,49,50,50,51,51,52,52,53,53,54,54,56,56,59,59,60,60,65,65,66,66,70,70,71,71,73,73,74,74,76,76,78,78,79,79,80,80,81,81,82,82,83,83,84,84,85,85,86,86,88,88,89,89,90,90,91,91,92,92,93,93,94,94,95,95,96,96,97,97,98,98,99,99,100,100,101,101,106,106],"right_children":[2,4,6,8,10,12,14,16,18,20,22,24,26,28,30,-1,32,34,36,38,40,42,44,46,48,50,52,54,56,58,60,-1,-1,-1,-1,62,64,66,68,70,72,74,76,78,80,82,84,86,88,90,92,94,96,98,100,-1,102,-1,-1,104,106,-1,-1,-1,-1,108,110,-1,-1,-1,112,114,-1,116,118,-1,120,-1,122,124,126,128,130,132,134,136,138,-1,140,142,144,146,148,150,152,154,156,158,160,162,164,166,-1,-1,-1,-1,168,-1,-1,-1,-1,-1,-1,-1,-1,-1,-1,-1,-1,-1,-1,-1,-1,-1,-1,-1,-1,-1,-1,-1,-1,-1,-1,-1,-1,-1,-1,-1,-1,-1,-1,-1,-1,-1,-1,-1,-1,-1,-1,-1,-1,-1,-1,-1,-1,-1,-1,-1,-1,-1,-1,-1,-1,-1,-1,-1,-1,-1,-1],"split_conditions":[-1.706324E-1,-9.6782506E-1,6.4535433E-1,-1.3242517E0,-5.581864E-1,2.7381214E-1,1.888534E0,-1.7646811E0,-1.1951542E0,-7.3951066E-1,-3.924414E-1,8.213457E-2,4.335679E-1,9.7638184E-1,-3.2395814E-2,3.2774588E-1,-1.5210533E0,-1.1940359E0,7.53052E-1,9.598043E-1,-6.568343E-1,1.5661011E0,-2.0228724E0,1.9940549E0,1.3204606E0,-1.0825313E0,7.416338E-1,8.664999E-1,1.1095076E0,1.1208365E0,-5.594088E-1,2.931532E-1,2.6621348E-1,2.0358868E-1,2.4473381E-1,-1.011575E0,7.6631576E-1,-9.0280235E-1,9.8416805E-1,-2.0228724E0,1.8776574E0,3.516669E-1,1.733672E0,-1.4270246E0,1.3592559E0,-7.758011E-2,1.016324E0,6.635309E-1,9.393236E-2,-9.823503E-1,1.6773728E0,-1.661568E0,8.535524E-1,6.9900763E-1,1.9940549E0,-1.9748743E-1,1.5841144E0,-7.1383923E-1,-2.3023652E-1,3.1554756E-1,-3.4937285E-2,2.0859753E-1,1.8213843E-1,-2.3990133E-1,1.9539428E-1,1.1689973E0,1.63859E0,-1.989745E-1,1.4361276E-1,4.507605E-2,-1.4070647E0,9.408032E-1,4.6659034E-2,-1.0945987E0,4.2370558E-1,1.4018048E-1,-9.50436E-1,7.5305685E-2,-7.427028E-1,-2.2561894E-1,3.3018267E-1,2.9521567E-1,1.6773728E0,-6.5440305E-2,1.2799665E0,-6.372893E-1,7.9437125E-1,2.9338975E-2,1.3682829E0,-1.5854477E0,-1.1405989E0,-1.4343782E-1,3.4407258E-1,5.264237E-1,5.804691E-1,4.625744E-1,5.4973626E-1,1.2420807E0,1.4564503E0,2.0501611E0,9.5888263E-1,-2.052958E0,-2.6757014E-1,-3.1269312E-1,1.1335476E-1,-7.6024646E-1,3.3932903E-1,1.7916946E-1,1.3312502E-1,1.5544866E-1,1.1208504E-1,1.660982E-1,1.2045925E-1,1.1028152E-1,8.839958E-2,7.611091E-2,9.659638E-2,3.3112716E-2,8.1279166E-2,4.1311678E-2,9.836949E-2,-8.4459335E-2,1.1351635E-2,6.1361827E-2,3.982928E-2,-5.544565E-3,5.944515E-2,1.4592844E-2,4.080298E-2,-1.8680546E-3,6.1675142E-2,4.7995415E-2,3.9901673E-3,-3.8725927E-1,-1.4087419E-2,-2.4304038E-2,-4.3541458E-2,5.167508E-3,-2.879616E-2,-9.730127E-2,-5.306626E-2,-1.32173E-2,-1.4436547E-1,-4.11879E-2,2.744258E-2,-9.1911145E-2,-7.4014954E-2,3.1935258E-4,-5.2407872E-2,-9.696358E-2,-1.6941905E-1,-8.856839E-2,-1.02845065E-1,-5.1570266E-1,-1.3151334E-1,-9.2698716E-2,-1.2342378E-1,-1.2520711E-1,-9.522811E-2,-1.4446491E-1,-1.18438505E-1,-1.7120394E-1,-9.623426E-2,-2.7622423E-1,-1.0364294E-1,-1.4813237E-1,-2.1789873E-1,-7.2120555E-2,-3.328997E-1],"split_indices":[5,5,5,5,5,5,5,5,5,5,5,5,5,5,2,0,5,3,2,3,5,3,2,2,2,3,3,5,5,3,3,0,0,0,0,5,2,5,3,2,3,3,3,3,3,5,3,3,5,2,3,3,3,5,2,0,5,0,0,2,3,0,0,0,0,2,2,0,0,0,2,2,0,3,3,0,2,0,3,5,2,2,3,3,3,3,3,0,2,3,3,3,5,5,5,5,5,2,2,3,5,3,0,0,0,0,3,0,0,0,0,0,0,0,0,0,0,0,0,0,0,0,0,0,0,0,0,0,0,0,0,0,0,0,0,0,0,0,0,0,0,0,0,0,0,0,0,0,0,0,0,0,0,0,0,0,0,0,0,0,0,0,0,0,0,0,0,0,0],"split_type":[0,0,0,0,0,0,0,0,0,0,0,0,0,0,0,0,0,0,0,0,0,0,0,0,0,0,0,0,0,0,0,0,0,0,0,0,0,0,0,0,0,0,0,0,0,0,0,0,0,0,0,0,0,0,0,0,0,0,0,0,0,0,0,0,0,0,0,0,0,0,0,0,0,0,0,0,0,0,0,0,0,0,0,0,0,0,0,0,0,0,0,0,0,0,0,0,0,0,0,0,0,0,0,0,0,0,0,0,0,0,0,0,0,0,0,0,0,0,0,0,0,0,0,0,0,0,0,0,0,0,0,0,0,0,0,0,0,0,0,0,0,0,0,0,0,0,0,0,0,0,0,0,0,0,0,0,0,0,0,0,0,0,0,0,0,0,0,0,0],"sum_hessian":[1.1265E4,4.579E3,6.686E3,2.359E3,2.22E3,3.056E3,3.63E3,1.436E3,9.23E2,1.085E3,1.135E3,1.516E3,1.54E3,3.586E3,4.4E1,4.45E2,9.91E2,3.05E2,6.18E2,6.13E2,4.72E2,4.83E2,6.52E2,8.2E2,6.96E2,6.27E2,9.13E2,1.673E3,1.913E3,2E1,2.4E1,5.56E2,4.35E2,4E1,2.65E2,4.67E2,1.51E2,5E2,1.13E2,2.06E2,2.66E2,4.58E2,2.5E1,1.9E1,6.33E2,7.95E2,2.5E1,6.22E2,7.4E1,7.8E1,5.49E2,6.66E2,2.47E2,1.103E3,5.7E2,7.08E2,1.205E3,1.6E1,4E0,7E0,1.7E1,3.75E2,9.2E1,4E0,1.47E2,1.39E2,3.61E2,4E0,1.09E2,4E0,2.02E2,2.62E2,4E0,2.9E2,1.68E2,1.2E1,1.3E1,3E0,1.6E1,5.64E2,6.9E1,3.03E2,4.92E2,1.8E1,7E0,4.46E2,1.76E2,4E0,7E1,1.1E1,6.7E1,5.32E2,1.7E1,3.9E1,6.27E2,4.1E1,2.06E2,2.59E2,8.44E2,5.56E2,1.4E1,1.16E3,4.5E1,4E0,3E0,4E0,1.3E1,1.18E2,2.1E1,3.43E2,1.8E1,9E0,1.93E2,2.15E2,4.7E1,9.6E1,1.94E2,1.7E1,1.51E2,3E0,1E1,3E0,1.3E1,4.2E2,1.44E2,3.3E1,3.6E1,1.93E2,1.1E2,4.68E2,2.4E1,7E0,1.1E1,4E0,3E0,1.64E2,2.82E2,2.4E1,1.52E2,1.1E1,5.9E1,4E0,7E0,6.4E1,3E0,1.94E2,3.38E2,1E1,7E0,2E1,1.9E1,4.11E2,2.16E2,4E0,3.7E1,1.03E2,1.03E2,2.36E2,2.3E1,7.7E2,7.4E1,5.49E2,7E0,1E1,4E0,1.1E1,1.149E3,3E0,1E1],"tree_param":{"num_deleted":"0","num_feature":"6","num_nodes":"169","size_leaf_vector":"1"}},{"base_weights":[1.1312957E-2,-2.2159646E0,3.4154165E0,-3.1748862E0,-8.222761E-1,2.0915978E0,4.9000664E0,-7.762058E0,-3.11796E0,-1.4382839E0,-1.01208486E-1,1.3931537E0,2.854799E0,4.210102E0,5.4855986E0,-1.1921868E1,-5.380881E0,-3.4395092E0,-2.5846677E0,-1.6745726E0,-1.1072886E0,-3.9689144E-1,2.0761788E-1,8.609392E-1,1.6195254E0,2.2916315E0,3.0740616E0,3.7125695E0,2.2448663E-1,5.117992E0,2.9201132E-1,-7.5716716E-1,-2.5710705E-1,-5.901085E0,-5.4564765E-3,-3.3928785E0,-5.129759E0,-2.886803E0,-2.2633116E0,-1.6327893E0,-2.550404E0,-1.2226176E0,-1.0159699E0,-3.667207E-1,-1.3870177E0,1.0064648E-1,4.7393167E-1,7.3833054E-1,1.3352919E0,1.4186866E0,1.7855854E0,3.1641295E0,2.229027E0,2.8812048E0,3.2992582E0,3.861588E0,3.213723E0,2.5657934E-1,9.483503E-2,-9.488307E-2,-6.440163E0,-1.8710631E-1,-3.2414145E0,-5.7768364E0,-3.5978873E0,-1.447174E-1,-5.630019E-2,-2.2680342E0,-4.0294915E-2,-1.8004458E0,-1.488489E0,-3.0937638E0,-1.8389515E0,-9.442603E-1,-1.3583337E0,-7.122472E-1,-1.1061175E0,-1.2218781E-1,-4.2042992E-1,-2.359671E0,5.48505E-2,1.9180746E-1,-2.0062502E-1,4.087488E-1,1.210475E0,9.4105375E-1,2.8730288E-1,9.361285E-1,2.249816E0,1.4434807E0,-6.796969E-2,2.0011535E0,1.6731987E0,2.4566653E0,2.135429E-1,1.0060578E-2,2.2483013E0,2.5644386E0,1.5523297E-1,3.34128E0,2.2933216E0,1.8099003E-1,2.1134698E-1,-2.2998928E-1,1.8208723E-1,-4.7385883E-1,-2.4086009E-1,-1.6439803E-1,-1.4758866E-1,-3.310649E-1,-1.9394739E-1,-2.055044E-1,-1.08763754E-1,-1.16483204E-1,-1.05699055E-1,-3.4668844E-2,-9.1399945E-2,-2.2360886E-2,-7.6869346E-2,-9.6010916E-2,-2.4923015E-1,-1.0172143E-2,-1.1274288E-1,-6.488272E-2,-2.9920164E-2,-5.0517768E-2,-7.9703495E-2,-5.6899037E-2,-1.1258389E-2,-8.829493E-2,-5.2198898E-2,1.5676186E-3,-2.8591637E-2,-9.160116E-2,-1.875176E-2,4.6444437E-3,-3.4064287E-1,7.556905E-3,4.832494E-2,-2.3931501E-2,9.669813E-3,2.481868E-2,-5.2407426E-3,1.03428185E-1,2.1295713E-3,7.581233E-2,4.2609338E-2,-1.1475066E-2,2.4487507E-2,5.693124E-2,-1.7902652E-2,1.4264292E-1,8.857695E-2,7.4318655E-2,4.343725E-2,8.889086E-2,1.3467231E-1,5.96008E-2,9.237509E-2,1.5429376E-1,6.86165E-2,1.06984176E-1,1.27488E-1,1.3146907E-1,9.722237E-2,9.852983E-2,1.685692E-1,6.3785575E-2,1.343742E-1],"categories":[],"categories_nodes":[],"categories_segments":[],"categories_sizes":[],"default_left":[0,0,0,0,0,0,0,0,0,0,0,0,0,0,0,0,0,0,0,0,0,0,0,0,0,0,0,0,0,0,0,0,0,0,0,0,0,0,0,0,0,0,0,0,0,0,0,0,0,0,0,0,0,0,0,0,0,0,0,0,0,0,0,0,0,0,0,0,0,0,0,0,0,0,0,0,0,0,0,0,0,0,0,0,0,0,0,0,0,0,0,0,0,0,0,0,0,0,0,0,0,0,0,0,0,0,0,0,0,0,0,0,0,0,0,0,0,0,0,0,0,0,0,0,0,0,0,0,0,0,0,0,0,0,0,0,0,0,0,0,0,0,0,0,0,0,0,0,0,0,0,0,0,0,0,0,0,0,0,0,0,0,0,0,0,0,0,0,0],"id":1,"left_children":[1,3,5,7,9,11,13,15,17,19,21,23,25,27,29,31,33,35,37,39,41,43,45,47,49,51,53,55,-1,57,-1,-1,-1,59,-1,61,63,65,67,69,71,73,75,77,79,81,83,85,87,89,91,93,95,97,99,101,103,-1,-1,-1,105,-1,107,109,111,-1,-1,113,-1,115,117,119,121,123,125,127,129,131,133,135,-1,137,139,141,143,145,147,149,151,153,-1,155,157,159,-1,-1,161,163,-1,165,167,-1,-1,-1,-1,-1,-1,-1,-1,-1,-1,-1,-1,-1,-1,-1,-1,-1,-1,-1,-1,-1,-1,-1,-1,-1,-1,-1,-1,-1,-1,-1,-1,-1,-1,-1,-1,-1,-1,-1,-1,-1,-1,-1,-1,-1,-1,-1,-1,-1,-1,-1,-1,-1,-1,-1,-1,-1,-1,-1,-1,-1,-1,-1,-1,-1,-1,-1,-1],"loss_changes":[8.5842195E4,9.14357E3,8.790148E3,1.033332E3,1.2394161E3,1.2584014E3,8.283672E2,4.1947656E2,6.774531E2,1.1557422E2,1.1762333E2,1.4763013E2,1.3207617E2,1.1787891E2,1.1736719E2,2.9139453E2,8.925372E1,1.7847461E2,1.3965918E2,2.7474854E1,5.1689453E0,1.8972328E1,1.7842255E1,2.04422E1,2.6095459E1,9.941528E0,2.5098633E1,1.3346191E1,0E0,1.4394531E1,0E0,0E0,0E0,5.168982E1,0E0,1.1581836E2,4.270874E1,6.6347656E0,2.9375E0,1.7288818E1,8.507263E0,8.8003845E0,8.832336E0,8.2999115E0,4.862072E1,1.2423958E1,7.985096E0,2.685405E1,2.4953629E1,2.9384766E1,7.6950684E0,3.7116394E0,1.1145142E1,2.2969727E1,7.2873535E0,7.67749E0,3.1095844E2,0E0,0E0,0E0,8.106995E1,0E0,1.2646484E1,4.378479E1,6.461487E0,0E0,0E0,1.5996094E0,0E0,1.0163086E1,2.2382568E1,3.411772E1,1.2219582E1,1.0400688E1,1.2976624E1,1.7233562E1,9.109039E0,8.1494875E0,3.266958E1,1.5420874E2,0E0,1.0674815E1,1.1622777E1,7.6063366E0,1.3730852E1,8.949753E0,9.9732275E0,1.4637363E1,8.288727E-1,8.210693E0,0E0,1.8884216E1,2.3997192E1,4.8711853E0,0E0,0E0,3.8984375E0,2.0802002E0,0E0,7.2644043E0,3.3950882E0,0E0,0E0,0E0,0E0,0E0,0E0,0E0,0E0,0E0,0E0,0E0,0E0,0E0,0E0,0E0,0E0,0E0,0E0,0E0,0E0,0E0,0E0,0E0,0E0,0E0,0E0,0E0,0E0,0E0,0E0,0E0,0E0,0E0,0E0,0E0,0E0,0E0,0E0,0E0,0E0,0E0,0E0,0E0,0E0,0E0,0E0,0E0,0E0,0E0,0E0,0E0,0E0,0E0,0E0,0E0,0E0,0E0,0E0,0E0,0E0,0E0,0E0,0E0,0E0,0E0,0E0,0E0,0E0],"parents":[2147483647,0,0,1,1,2,2,3,3,4,4,5,5,6,6,7,7,8,8,9,9,10,10,11,11,12,12,13,13,14,14,15,15,16,16,17,17,18,18,19,19,20,20,21,21,22,22,23,23,24,24,25,25,26,26,27,27,29,29,33,33,35,35,36,36,37,37,38,38,39,39,40,40,41,41,42,42,43,43,44,44,45,45,46,46,47,47,48,48,49,49,50,50,51,51,52,52,53,53,54,54,55,55,56,56,60,60,62,62,63,63,64,64,67,67,69,69,70,70,71,71,72,72,73,73,74,74,75,75,76,76,77,77,78,78,79,79,81,81,82,82,83,83,84,84,85,85,86,86,87,87,88,88,89,89,91,91,92,92,93,93,96,96,97,97,99,99,100,100],"right_children":[2,4,6,8,10,12,14,16,18,20,22,24,26,28,30,32,34,36,38,40,42,44,46,48,50,52,54,56,-1,58,-1,-1,-1,60,-1,62,64,66,68,70,72,74,76,78,80,82,84,86,88,90,92,94,96,98,100,102,104,-1,-1,-1,106,-1,108,110,112,-1,-1,114,-1,116,118,120,122,124,126,128,130,132,134,136,-1,138,140,142,144,146,148,150,152,154,-1,156,158,160,-1,-1,162,164,-1,166,168,-1,-1,-1,-1,-1,-1,-1,-1,-1,-1,-1,-1,-1,-1,-1,-1,-1,-1,-1,-1,-1,-1,-1,-1,-1,-1,-1,-1,-1,-1,-1,-1,-1,-1,-1,-1,-1,-1,-1,-1,-1,-1,-1,-1,-1,-1,-1,-1,-1,-1,-1,-1,-1,-1,-1,-1,-1,-1,-1,-1,-1,-1,-1,-1,-1,-1,-1,-1],"split_conditions":[2.137383E-1,-4.9103057E-1,1.0034213E0,-2.2242107E0,-1.3670601E-1,6.18642E-1,1.3884338E0,-4.5007965E-1,-8.097081E-1,-2.892634E-1,3.8099155E-2,3.2164994E-1,7.2305304E-1,1.132421E0,1.6713235E0,1.7691497E0,1.5437655E0,1.7691497E0,-6.489368E-1,1.7804296E0,-2.2815798E-1,1.9940549E0,1.6079906E-1,9.408032E-1,4.549398E-1,-1.8014065E0,8.7292004E-1,7.38817E-1,2.2448663E-1,1.7691497E0,2.9201132E-1,-7.5716716E-1,-2.5710705E-1,-1.2854244E-1,-5.4564765E-3,-1.2655118E0,-1.1352359E0,7.3527937E0,3.6303642E0,-4.0557858E-1,-3.9404348E-1,-2.674633E-1,-8.4245217E-1,-9.3409294E-1,-3.809949E-2,7.38817E-1,1.3682829E0,1.1097186E-1,2.934531E-1,1.7691497E0,-3.3612245E-1,-1.900914E0,-1.692109E0,-1.8963872E-1,1.63859E0,-6.0966548E-2,7.940466E-1,2.5657934E-1,9.483503E-2,-9.488307E-2,2.1715626E-1,-1.8710631E-1,1.0819241E0,1.4797652E1,7.3527937E0,-1.447174E-1,-5.630019E-2,-5.421092E-1,-4.0294915E-2,-2.0228724E0,-1.7569364E0,-4.2339608E-1,-3.5327747E-1,-2.7350227E-3,-2.4082385E-1,-1.7500225E-1,-6.5205187E-1,3.7635316E-3,-8.4245217E-1,-6.8416856E-2,5.48505E-2,6.3639486E-1,1.3204606E0,8.7116045E-1,1.9940549E0,-1.542189E0,3.611675E-1,1.9349467E0,1.2575834E0,1.6675819E0,-6.796969E-2,-6.905741E-1,1.7557913E-1,6.656486E-1,2.135429E-1,1.0060578E-2,8.4783036E-1,-3.3612245E-1,1.5523297E-1,-1.900914E0,1.9940549E0,1.8099003E-1,2.1134698E-1,-2.2998928E-1,1.8208723E-1,-4.7385883E-1,-2.4086009E-1,-1.6439803E-1,-1.4758866E-1,-3.310649E-1,-1.9394739E-1,-2.055044E-1,-1.08763754E-1,-1.16483204E-1,-1.05699055E-1,-3.4668844E-2,-9.1399945E-2,-2.2360886E-2,-7.6869346E-2,-9.6010916E-2,-2.4923015E-1,-1.0172143E-2,-1.1274288E-1,-6.488272E-2,-2.9920164E-2,-5.0517768E-2,-7.9703495E-2,-5.6899037E-2,-1.1258389E-2,-8.829493E-2,-5.2198898E-2,1.5676186E-3,-2.8591637E-2,-9.160116E-2,-1.875176E-2,4.6444437E-3,-3.4064287E-1,7.556905E-3,4.832494E-2,-2.3931501E-2,9.669813E-3,2.481868E-2,-5.2407426E-3,1.03428185E-1,2.1295713E-3,7.581233E-2,4.2609338E-2,-1.1475066E-2,2.4487507E-2,5.693124E-2,-1.7902652E-2,1.4264292E-1,8.857695E-2,7.4318655E-2,4.343725E-2,8.889086E-2,1.3467231E-1,5.96008E-2,9.237509E-2,1.5429376E-1,6.86165E-2,1.06984176E-1,1.27488E-1,1.3146907E-1,9.722237E-2,9.852983E-2,1.685692E-1,6.3785575E-2,1.343742E-1],"split_indices":[0,0,0,0,0,0,0,2,0,0,0,0,0,0,0,1,2,1,0,2,0,2,0,2,0,2,0,2,0,1,0,0,0,2,0,0,0,1,1,0,0,0,2,2,0,2,2,2,0,1,2,2,2,2,2,2,2,0,0,0,2,0,2,1,1,0,0,0,0,2,2,0,0,2,2,0,2,0,2,0,0,2,2,2,2,2,2,2,2,2,0,2,2,0,0,0,2,2,0,2,2,0,0,0,0,0,0,0,0,0,0,0,0,0,0,0,0,0,0,0,0,0,0,0,0,0,0,0,0,0,0,0,0,0,0,0,0,0,0,0,0,0,0,0,0,0,0,0,0,0,0,0,0,0,0,0,0,0,0,0,0,0,0,0,0,0,0,0,0],"split_type":[0,0,0,0,0,0,0,0,0,0,0,0,0,0,0,0,0,0,0,0,0,0,0,0,0,0,0,0,0,0,0,0,0,0,0,0,0,0,0,0,0,0,0,0,0,0,0,0,0,0,0,0,0,0,0,0,0,0,0,0,0,0,0,0,0,0,0,0,0,0,0,0,0,0,0,0,0,0,0,0,0,0,0,0,0,0,0,0,0,0,0,0,0,0,0,0,0,0,0,0,0,0,0,0,0,0,0,0,0,0,0,0,0,0,0,0,0,0,0,0,0,0,0,0,0,0,0,0,0,0,0,0,0,0,0,0,0,0,0,0,0,0,0,0,0,0,0,0,0,0,0,0,0,0,0,0,0,0,0,0,0,0,0,0,0,0,0,0,0],"sum_hessian":[1.132E4,6.843E3,4.477E3,4.053E3,2.79E3,2.368E3,2.109E3,4.8E1,4.005E3,1.504E3,1.286E3,1.238E3,1.13E3,9.72E2,1.137E3,1.6E1,3.2E1,2.495E3,1.51E3,8.75E2,6.29E2,6.57E2,6.29E2,3.71E2,8.67E2,3.2E2,8.1E2,3.55E2,6.17E2,5.66E2,5.71E2,1E1,6E0,2.9E1,3E0,2.431E3,6.4E1,7.74E2,7.36E2,8.38E2,3.7E1,2.72E2,3.57E2,6.39E2,1.8E1,4.5E2,1.79E2,2.97E2,7.4E1,3.97E2,4.7E2,1.8E1,3.02E2,4.44E2,3.66E2,2.68E2,8.7E1,5.63E2,3E0,4E0,2.5E1,7.28E2,1.703E3,4.3E1,2.1E1,7.7E2,4E0,7.33E2,3E0,3.82E2,4.56E2,1.9E1,1.8E1,9.2E1,1.8E2,8.4E1,2.73E2,1.16E2,5.23E2,1.3E1,5E0,3.46E2,1.04E2,1.66E2,1.3E1,2.04E2,9.3E1,5.3E1,2.1E1,3.94E2,3E0,1.55E2,3.15E2,1.3E1,5E0,3E0,2.99E2,1.89E2,2.55E2,3.49E2,1.7E1,1.68E2,1E2,4E0,8.3E1,7E0,1.8E1,1.458E3,2.45E2,2.8E1,1.5E1,1.4E1,7E0,5.13E2,2.2E2,1E1,3.72E2,2.1E1,4.35E2,1.3E1,6E0,4E0,1.4E1,4.4E1,4.8E1,7.5E1,1.05E2,4.4E1,4E1,2.1E1,2.52E2,8.7E1,2.9E1,1.5E1,5.08E2,9E0,4E0,3.3E2,1.6E1,6.1E1,4.3E1,1.42E2,2.4E1,7E0,6E0,2.5E1,1.79E2,2.6E1,6.7E1,4.6E1,7E0,7E0,1.4E1,3.65E2,2.9E1,1.2E2,3.5E1,8.6E1,2.29E2,7E0,6E0,2.26E2,7.3E1,1.68E2,2.1E1,9E0,3.4E2,6E0,1.1E1],"tree_param":{"num_deleted":"0","num_feature":"6","num_nodes":"169","size_leaf_vector":"1"}},{"base_weights":[1.5492911E-2,-2.1274583E0,3.2240057E0,-2.9889076E0,-7.591008E-1,2.0771074E0,4.789932E0,-8.099663E0,-2.9321158E0,-1.3151405E0,-1.4511077E-1,1.299673E0,2.8128543E0,4.154623E0,5.195031E0,-7.5075406E-1,-7.2458215E0,-3.165321E0,-2.2135477E0,-1.5641118E0,-1.0090896E0,-4.173681E-1,1.4531168E-1,7.492107E-1,1.5207442E0,2.1723697E0,2.9963932E0,3.657809E0,2.1284643E-1,2.4682449E-1,2.7961677E-1,1.4411311E-1,-8.390416E0,-3.5937498E0,-3.017446E0,-2.600369E0,-2.0721393E0,-1.2360201E-1,-1.5150067E0,-1.2006239E0,-8.823558E-1,-4.6113312E-2,-4.6547857E-1,7.429729E-1,5.4779644E-3,1.3028789E-1,7.1600163E-1,1.2737986E0,1.648355E0,2.199605E0,1.1471426E0,1.3638487E-1,3.2012455E0,7.90634E-2,1.8461332E-1,-1.0092463E1,-6.1519246E0,-3.5285933E0,-2.510856E-1,-2.999086E0,-4.266051E0,-3.207353E0,-2.2970486E0,-1.8676453E0,-2.2160811E0,-1.6758375E0,-1.2797147E0,-4.9132386E-1,-1.3171343E0,-1.0089058E0,-5.451755E-1,-1.0877678E0,2.531111E-1,-7.478534E-2,-4.5534274E-1,1.2275501E0,4.4186464E-1,-1.5120474E-1,4.400956E-1,6.125324E-1,9.982151E-1,1.6644639E0,1.1873766E0,1.7330089E0,1.1349316E0,1.7650715E-1,2.1686282E0,-5.9226688E-2,1.1649686E-1,3.3090894E0,2.659265E0,-5.7074296E-1,-2.543864E-1,-1.793969E-1,-3.525808E-1,-1.3700664E-1,-1.7747012E-1,-1.5703908E-1,-1.4285181E-1,-2.4403214E-1,-1.2386717E-1,-1.4374892E-1,-4.638648E-1,-8.211556E-2,-1.1954029E-1,-1.0111859E-1,-6.022622E-2,-2.5918248E-1,-1.073733E-1,-6.72364E-2,-1.0333395E-1,-7.062076E-2,-2.7225262E-2,2.4099981E-2,-5.68583E-2,-6.307508E-2,-1.4815946E-1,-3.4330603E-2,-6.1998524E-2,-5.089851E-2,-5.5758157E-3,4.0932447E-2,-7.8095175E-2,2.742661E-2,-4.4990648E-3,-2.4620902E-2,-1.2934551E-2,4.376726E-2,9.437251E-2,5.1766485E-3,4.8312984E-2,-1.0404098E-1,-6.444037E-3,2.7557272E-2,-4.0113755E-2,4.0706947E-2,1.248886E-2,1.20341554E-1,4.288397E-2,6.5257736E-2,1.1025158E-1,1.7520783E-2,6.556491E-2,8.5450314E-2,1.3254273E-1,3.9756548E-2,1.0490999E-1,4.164392E-2,1.09682575E-1,9.067871E-2,1.66355E-1,-6.0913302E-2,1.5016459E-1],"categories":[],"categories_nodes":[],"categories_segments":[],"categories_sizes":[],"default_left":[0,0,0,0,0,0,0,0,0,0,0,0,0,0,0,0,0,0,0,0,0,0,0,0,0,0,0,0,0,0,0,0,0,0,0,0,0,0,0,0,0,0,0,0,0,0,0,0,0,0,0,0,0,0,0,0,0,0,0,0,0,0,0,0,0,0,0,0,0,0,0,0,0,0,0,0,0,0,0,0,0,0,0,0,0,0,0,0,0,0,0,0,0,0,0,0,0,0,0,0,0,0,0,0,0,0,0,0,0,0,0,0,0,0,0,0,0,0,0,0,0,0,0,0,0,0,0,0,0,0,0,0,0,0,0,0,0,0,0,0,0,0,0,0,0,0,0,0,0,0,0,0,0],"id":2,"left_children":[1,3,5,7,9,11,13,15,17,19,21,23,25,27,29,-1,31,33,35,37,39,41,43,45,47,49,51,53,-1,-1,-1,-1,55,57,59,61,63,-1,65,67,69,71,73,75,77,-1,79,81,83,85,87,-1,89,-1,-1,91,93,95,-1,97,99,101,103,105,107,109,111,113,115,117,119,121,123,-1,125,127,129,131,133,135,137,139,141,143,145,-1,147,-1,-1,149,151,-1,-1,-1,-1,-1,-1,-1,-1,-1,-1,-1,-1,-1,-1,-1,-1,-1,-1,-1,-1,-1,-1,-1,-1,-1,-1,-1,-1,-1,-1,-1,-1,-1,-1,-1,-1,-1,-1,-1,-1,-1,-1,-1,-1,-1,-1,-1,-1,-1,-1,-1,-1,-1,-1,-1,-1,-1,-1,-1,-1,-1,-1],"loss_changes":[7.752346E4,7.9658457E3,8.0981133E3,1.1790938E3,8.917488E2,1.4876963E3,4.6853125E2,1.5468726E2,6.801797E2,1.0263159E2,9.837144E1,1.5318164E2,1.5037793E2,2.1655273E1,9.05957E1,0E0,5.1162134E2,1.8463867E2,4.9336426E1,2.9472412E1,1.3733582E1,1.1394287E1,5.0232147E1,2.0367554E1,2.6127441E1,5.574585E0,4.780957E1,3.293579E0,0E0,0E0,0E0,0E0,8.1068115E1,5.4833984E1,3.938867E1,4.1055542E1,1.735254E1,0E0,2.473059E1,1.9253784E1,1.53385315E1,2.3735424E1,5.0550156E0,1.5924419E1,3.3394897E1,0E0,9.768829E0,8.306E0,2.3520142E1,3.85083E0,3.045337E1,0E0,2.46792E1,0E0,0E0,7.2638794E1,1.7464417E1,2.0830078E0,0E0,3.6277344E1,2.1252258E1,1.456175E2,6.781189E0,2.9458496E1,7.589526E1,5.1620728E1,2.7913788E1,2.324371E1,1.4887024E1,1.9212006E1,2.1301867E1,1.6719276E1,6.07526E0,0E0,3.9095917E0,8.065613E0,1.256718E1,1.5018466E1,1.8352514E1,1.9216988E1,1.6415543E1,7.259552E0,2.634085E1,6.203125E0,2.6519096E1,0E0,7.5301514E0,0E0,0E0,6.4345703E0,1.3990265E2,0E0,0E0,0E0,0E0,0E0,0E0,0E0,0E0,0E0,0E0,0E0,0E0,0E0,0E0,0E0,0E0,0E0,0E0,0E0,0E0,0E0,0E0,0E0,0E0,0E0,0E0,0E0,0E0,0E0,0E0,0E0,0E0,0E0,0E0,0E0,0E0,0E0,0E0,0E0,0E0,0E0,0E0,0E0,0E0,0E0,0E0,0E0,0E0,0E0,0E0,0E0,0E0,0E0,0E0,0E0,0E0,0E0,0E0,0E0,0E0,0E0,0E0],"parents":[2147483647,0,0,1,1,2,2,3,3,4,4,5,5,6,6,7,7,8,8,9,9,10,10,11,11,12,12,13,13,14,14,16,16,17,17,18,18,19,19,20,20,21,21,22,22,23,23,24,24,25,25,26,26,27,27,32,32,33,33,34,34,35,35,36,36,38,38,39,39,40,40,41,41,42,42,43,43,44,44,46,46,47,47,48,48,49,49,50,50,52,52,55,55,56,56,57,57,59,59,60,60,61,61,62,62,63,63,64,64,65,65,66,66,67,67,68,68,69,69,70,70,71,71,72,72,74,74,75,75,76,76,77,77,78,78,79,79,80,80,81,81,82,82,83,83,84,84,86,86,89,89,90,90],"right_children":[2,4,6,8,10,12,14,16,18,20,22,24,26,28,30,-1,32,34,36,38,40,42,44,46,48,50,52,54,-1,-1,-1,-1,56,58,60,62,64,-1,66,68,70,72,74,76,78,-1,80,82,84,86,88,-1,90,-1,-1,92,94,96,-1,98,100,102,104,106,108,110,112,114,116,118,120,122,124,-1,126,128,130,132,134,136,138,140,142,144,146,-1,148,-1,-1,150,152,-1,-1,-1,-1,-1,-1,-1,-1,-1,-1,-1,-1,-1,-1,-1,-1,-1,-1,-1,-1,-1,-1,-1,-1,-1,-1,-1,-1,-1,-1,-1,-1,-1,-1,-1,-1,-1,-1,-1,-1,-1,-1,-1,-1,-1,-1,-1,-1,-1,-1,-1,-1,-1,-1,-1,-1,-1,-1,-1,-1,-1,-1],"split_conditions":[2.137383E-1,-4.6314505E-1,1.083221E0,-2.2242107E0,-1.3670601E-1,6.18642E-1,1.3884338E0,-1.3332021E0,-6.813444E-1,-2.892634E-1,3.8099155E-2,3.2164994E-1,7.2305304E-1,1.132421E0,1.743693E0,-7.5075406E-1,-1.0945987E0,-1.2488017E0,-6.3048935E-1,-1.661568E0,-2.6032302E-1,-1.2404093E0,-9.6464694E-1,-1.8937973E0,4.2674577E-1,1.7074572E0,8.7292004E-1,-1.6088423E0,2.1284643E-1,2.4682449E-1,2.7961677E-1,1.4411311E-1,1.8697734E-1,1.7691497E0,1.7691497E0,-5.149264E-1,-2.091553E-1,-1.2360201E-1,-3.6510876E-1,-2.674633E-1,-1.8585101E-1,-1.835716E0,-1.1940359E0,9.802533E-2,1.6079906E-1,1.3028789E-1,8.7539244E-1,-1.1070353E0,1.1748952E0,-2.052958E0,6.656486E-1,1.3638487E-1,9.092887E-1,7.90634E-2,1.8461332E-1,1.7691497E0,5.589428E-1,-1.7144161E0,-2.510856E-1,-9.260471E-1,8.4396243E-1,-5.594088E-1,-1.6510692E-1,-5.006741E-1,-1.6510692E-1,2.6176456E-1,1.0934508E0,-1.0684714E0,-2.84584E-1,5.496132E-1,6.1336833E-1,-9.1316596E-2,-1.4715669E0,-7.478534E-2,1.2291344E0,8.4983416E-2,-1.2093475E0,-9.2969555E-1,1.4711373E0,2.8665483E-2,9.253071E-1,-1.3180782E0,-7.703726E-1,1.0809778E0,1.6457611E0,1.7650715E-1,-1.835716E0,-5.9226688E-2,1.1649686E-1,-1.8937973E0,9.8416805E-1,-5.7074296E-1,-2.543864E-1,-1.793969E-1,-3.525808E-1,-1.3700664E-1,-1.7747012E-1,-1.5703908E-1,-1.4285181E-1,-2.4403214E-1,-1.2386717E-1,-1.4374892E-1,-4.638648E-1,-8.211556E-2,-1.1954029E-1,-1.0111859E-1,-6.022622E-2,-2.5918248E-1,-1.073733E-1,-6.72364E-2,-1.0333395E-1,-7.062076E-2,-2.7225262E-2,2.4099981E-2,-5.68583E-2,-6.307508E-2,-1.4815946E-1,-3.4330603E-2,-6.1998524E-2,-5.089851E-2,-5.5758157E-3,4.0932447E-2,-7.8095175E-2,2.742661E-2,-4.4990648E-3,-2.4620902E-2,-1.2934551E-2,4.376726E-2,9.437251E-2,5.1766485E-3,4.8312984E-2,-1.0404098E-1,-6.444037E-3,2.7557272E-2,-4.0113755E-2,4.0706947E-2,1.248886E-2,1.20341554E-1,4.288397E-2,6.5257736E-2,1.1025158E-1,1.7520783E-2,6.556491E-2,8.5450314E-2,1.3254273E-1,3.9756548E-2,1.0490999E-1,4.164392E-2,1.09682575E-1,9.067871E-2,1.66355E-1,-6.0913302E-2,1.5016459E-1],"split_indices":[0,0,0,0,0,0,0,3,0,0,0,0,0,0,0,0,3,0,0,3,3,3,3,3,0,3,0,3,0,0,0,0,3,1,1,3,3,0,0,0,0,3,3,0,0,0,3,3,3,3,0,0,3,0,0,1,3,3,0,0,3,3,3,0,3,3,3,3,3,3,3,0,3,0,3,0,3,3,3,3,3,3,3,3,3,0,3,0,0,3,3,0,0,0,0,0,0,0,0,0,0,0,0,0,0,0,0,0,0,0,0,0,0,0,0,0,0,0,0,0,0,0,0,0,0,0,0,0,0,0,0,0,0,0,0,0,0,0,0,0,0,0,0,0,0,0,0,0,0,0,0,0,0],"split_type":[0,0,0,0,0,0,0,0,0,0,0,0,0,0,0,0,0,0,0,0,0,0,0,0,0,0,0,0,0,0,0,0,0,0,0,0,0,0,0,0,0,0,0,0,0,0,0,0,0,0,0,0,0,0,0,0,0,0,0,0,0,0,0,0,0,0,0,0,0,0,0,0,0,0,0,0,0,0,0,0,0,0,0,0,0,0,0,0,0,0,0,0,0,0,0,0,0,0,0,0,0,0,0,0,0,0,0,0,0,0,0,0,0,0,0,0,0,0,0,0,0,0,0,0,0,0,0,0,0,0,0,0,0,0,0,0,0,0,0,0,0,0,0,0,0,0,0,0,0,0,0,0,0],"sum_hessian":[1.1273E4,6.759E3,4.514E3,4.147E3,2.612E3,2.607E3,1.907E3,4.4E1,4.103E3,1.37E3,1.242E3,1.269E3,1.338E3,7.47E2,1.16E3,3E0,4.1E1,3.095E3,1.008E3,7.53E2,6.17E2,6.41E2,6.01E2,3.65E2,9.04E2,3.01E2,1.037E3,1.34E2,6.13E2,7.11E2,4.49E2,4E0,3.7E1,7.88E2,2.307E3,2.65E2,7.43E2,3.6E1,7.17E2,2.42E2,3.75E2,7.4E1,5.67E2,1.13E2,4.88E2,5E0,3.6E2,3.12E2,5.92E2,2.92E2,9E0,4.55E2,5.82E2,3E0,1.31E2,1.9E1,1.8E1,7.57E2,3.1E1,2.277E3,3E1,8.5E1,1.8E2,3.13E2,4.3E2,4.22E2,2.95E2,3.5E1,2.07E2,2.71E2,1.04E2,1.6E1,5.8E1,4E0,5.63E2,4.2E1,7.1E1,3.59E2,1.29E2,2.66E2,9.4E1,5.3E1,2.59E2,5.06E2,8.6E1,4E0,2.88E2,3E0,6E0,4.81E2,1.01E2,1.4E1,5E0,6E0,1.2E1,2.3E1,7.34E2,1.129E3,1.148E3,2.1E1,9E0,8.2E1,3E0,2.5E1,1.55E2,2.52E2,6.1E1,8E0,4.22E2,2.31E2,1.91E2,2.49E2,4.6E1,1.4E1,2.1E1,2.02E2,5E0,1.15E2,1.56E2,4.9E1,5.5E1,3E0,1.3E1,3.1E1,2.7E1,4.72E2,9.1E1,2.9E1,1.3E1,4.4E1,2.7E1,3E0,3.56E2,1.19E2,1E1,1.7E2,9.6E1,7E0,8.7E1,3.4E1,1.9E1,3.4E1,2.25E2,4.96E2,1E1,6.5E1,2.1E1,6E0,2.82E2,7E0,4.74E2,8E0,9.3E1],"tree_param":{"num_deleted":"0","num_feature":"6","num_nodes":"153","size_leaf_vector":"1"}},{"base_weights":[1.9450786E-2,-1.9639872E0,3.1772516E0,-2.8376267E0,-6.685422E-1,2.0815294E0,4.5616856E0,-3.203995E0,-2.3032274E0,-1.2602105E0,-8.637954E-2,1.436E0,2.793127E0,4.0366955E0,4.974411E0,-5.9983387E0,-3.1494012E0,-2.6092365E0,-2.0109875E0,-1.6450306E0,-1.144788E0,-4.4359615E-1,2.1236573E-1,1.0710797E0,1.6838152E0,2.4896061E0,3.0927E0,3.508334E0,4.1257305E0,4.6492066E0,2.619848E-1,-7.964579E0,-3.0389967E0,-3.1024323E0,-4.9094453E0,-2.6143007E0,-4.468983E-2,-2.1990411E0,-1.8193942E0,-1.5592633E0,-3.5296295E0,-1.1548835E0,6.1028313E-2,-4.1185257E-1,-1.5191303E0,6.479391E-2,4.4050753E-1,7.5620335E-1,1.1672724E0,1.5540804E0,1.9993746E0,2.2849822E0,2.707089E0,3.1034327E0,6.0995698E-2,1.7758733E-1,1.0012565E-1,2.2107373E-1,4.029116E0,2.3316477E-1,1.1621618E-1,-6.3244896E0,-1.0530926E1,-3.567509E0,-4.035759E-4,-3.1835976E0,-2.7810545E0,-5.75105E0,-4.3213267E0,-2.1474557E0,-2.6322525E0,-2.3155832E0,-1.9884546E0,-1.9652636E0,-1.6056452E0,-1.2945673E0,-1.8713963E0,-1.6640131E0,-3.0809066E-1,-9.910454E-1,-1.2971863E0,-4.339534E-1,5.797009E-1,1.8203083E-1,-2.9082623E0,2.973241E-1,-3.6510604E-3,6.8777835E-1,2.9060167E-1,6.1850566E-1,1.187254E0,5.2748805E-1,1.2391928E0,1.2913456E0,1.586213E0,2.4472482E0,1.8091356E0,1.5865843E-1,2.194314E0,1.3913715E-1,1.8687695E0,3.208658E0,2.8310647E0,2.459801E0,2.0222037E-1,-4.3655825E-1,-1.6376828E-1,-6.0404974E-1,-2.7740452E-1,-9.59382E-2,-2.259877E-1,-1.6672428E-1,-1.5439466E-1,-1.5220176E-1,-1.2378174E-1,-1.3515876E-1,-3.1363118E-1,-1.7641844E-1,-2.544461E-1,-8.477267E-2,-1.571558E-1,-1.4283575E-1,-1.2817456E-1,-1.0006714E-1,-1.343648E-1,-5.8506668E-2,-1.11449376E-1,-9.075445E-2,-1.3511963E-1,-5.3148873E-2,-9.272356E-2,-7.916901E-2,-4.9467396E-2,-1.6105264E-1,-8.8696286E-2,-9.937508E-2,-3.6888868E-2,-5.4674197E-2,-2.0124732E-2,-9.324041E-2,-5.9868593E-2,-2.0279028E-2,-4.4443797E-2,1.8378165E-2,4.965771E-2,3.411066E-2,-2.9437525E-2,-3.3743808E-1,3.8009886E-2,9.880022E-3,9.6320264E-2,-5.4551512E-2,3.3007793E-3,2.7818589E-2,4.5559306E-2,1.0314167E-2,3.9414544E-2,3.801235E-2,-1.7407484E-2,6.735157E-2,-6.1556627E-3,5.5269953E-2,-3.5007402E-2,1.1091707E-1,6.0062688E-2,7.885678E-2,2.2597097E-2,1.0728605E-1,7.608679E-2,1.0508036E-1,1.6163372E-1,7.687905E-2,1.2144045E-1,8.844411E-2,1.1801131E-1,5.2263755E-2,1.2464082E-1,1.5163888E-1,1.7524251E-1,3.364941E-2,1.6270684E-1,3.1407245E-2,1.7065829E-1],"categories":[],"categories_nodes":[],"categories_segments":[],"categories_sizes":[],"default_left":[0,0,0,0,0,0,0,0,0,0,0,0,0,0,0,0,0,0,0,0,0,0,0,0,0,0,0,0,0,0,0,0,0,0,0,0,0,0,0,0,0,0,0,0,0,0,0,0,0,0,0,0,0,0,0,0,0,0,0,0,0,0,0,0,0,0,0,0,0,0,0,0,0,0,0,0,0,0,0,0,0,0,0,0,0,0,0,0,0,0,0,0,0,0,0,0,0,0,0,0,0,0,0,0,0,0,0,0,0,0,0,0,0,0,0,0,0,0,0,0,0,0,0,0,0,0,0,0,0,0,0,0,0,0,0,0,0,0,0,0,0,0,0,0,0,0,0,0,0,0,0,0,0,0,0,0,0,0,0,0,0,0,0,0,0,0,0,0,0,0,0,0,0,0,0,0,0,0,0,0,0,0,0],"id":3,"left_children":[1,3,5,7,9,11,13,15,17,19,21,23,25,27,29,31,33,35,37,39,41,43,45,47,49,51,53,55,57,59,-1,61,63,65,67,69,-1,71,73,75,77,79,-1,81,83,85,87,89,91,93,95,97,99,101,-1,-1,-1,-1,103,-1,-1,105,107,109,-1,111,113,115,117,119,121,123,125,127,129,131,133,135,-1,137,139,141,143,145,147,149,151,153,155,157,159,161,163,165,167,169,171,-1,173,-1,175,177,179,181,-1,-1,-1,-1,-1,-1,-1,-1,-1,-1,-1,-1,-1,-1,-1,-1,-1,-1,-1,-1,-1,-1,-1,-1,-1,-1,-1,-1,-1,-1,-1,-1,-1,-1,-1,-1,-1,-1,-1,-1,-1,-1,-1,-1,-1,-1,-1,-1,-1,-1,-1,-1,-1,-1,-1,-1,-1,-1,-1,-1,-1,-1,-1,-1,-1,-1,-1,-1,-1,-1,-1,-1,-1,-1,-1,-1,-1,-1,-1],"loss_changes":[7.088189E4,7.8645566E3,6.612867E3,8.0478125E2,9.64553E2,1.1159375E3,3.9676953E2,3.554746E2,1.4560352E2,5.953296E1,1.5090811E2,1.1376538E2,9.712695E1,2.49375E1,6.739258E1,2.4235913E2,1.8361133E2,4.461914E0,2.6943115E1,4.5388123E1,2.7001709E1,2.1168243E1,2.584475E1,1.4705444E1,2.7692139E1,1.9170654E1,7.419922E0,8.3044434E-1,2.0546875E0,4.5771484E0,0E0,4.5355835E1,3.1651245E1,5.198047E1,4.333252E0,7.4121094E-1,0E0,5.616455E0,1.0112915E1,2.2542542E1,5.2802444E1,2.3385742E1,0E0,1.3977142E1,4.3338486E1,7.4948316E0,1.0896629E1,6.504425E0,1.7437073E1,2.2565918E0,1.3721252E1,1.71427E1,1.1839111E1,6.7910156E0,0E0,0E0,0E0,0E0,2.7919922E0,0E0,0E0,1.0962836E2,7.2424316E-1,1.7373962E1,0E0,1.6107422E1,3.0706299E1,1.7119568E1,5.529541E0,1.0388596E1,4.2504883E0,2.604126E1,2.8938843E1,2.2871155E1,2.244748E1,1.30737915E1,1.1940796E1,9.57777E-1,0E0,2.9615723E1,2.9641968E1,7.435211E0,7.268071E-1,3.8807805E0,1.4661644E2,1.678994E1,2.767325E1,2.6636581E0,7.711155E0,1.3596348E1,6.3598747E0,3.061197E1,1.02178955E1,1.4677376E1,1.3684326E1,9.504272E0,2.2288025E1,0E0,1.5246338E1,0E0,1.0401886E1,9.918945E0,1.5171814E2,1.1421799E1,0E0,0E0,0E0,0E0,0E0,0E0,0E0,0E0,0E0,0E0,0E0,0E0,0E0,0E0,0E0,0E0,0E0,0E0,0E0,0E0,0E0,0E0,0E0,0E0,0E0,0E0,0E0,0E0,0E0,0E0,0E0,0E0,0E0,0E0,0E0,0E0,0E0,0E0,0E0,0E0,0E0,0E0,0E0,0E0,0E0,0E0,0E0,0E0,0E0,0E0,0E0,0E0,0E0,0E0,0E0,0E0,0E0,0E0,0E0,0E0,0E0,0E0,0E0,0E0,0E0,0E0,0E0,0E0,0E0,0E0,0E0,0E0,0E0,0E0,0E0,0E0,0E0,0E0,0E0],"parents":[2147483647,0,0,1,1,2,2,3,3,4,4,5,5,6,6,7,7,8,8,9,9,10,10,11,11,12,12,13,13,14,14,15,15,16,16,17,17,18,18,19,19,20,20,21,21,22,22,23,23,24,24,25,25,26,26,27,27,28,28,29,29,31,31,32,32,33,33,34,34,35,35,37,37,38,38,39,39,40,40,41,41,43,43,44,44,45,45,46,46,47,47,48,48,49,49,50,50,51,51,52,52,53,53,58,58,61,61,62,62,63,63,65,65,66,66,67,67,68,68,69,69,70,70,71,71,72,72,73,73,74,74,75,75,76,76,77,77,79,79,80,80,81,81,82,82,83,83,84,84,85,85,86,86,87,87,88,88,89,89,90,90,91,91,92,92,93,93,94,94,95,95,96,96,98,98,100,100,101,101,102,102,103,103],"right_children":[2,4,6,8,10,12,14,16,18,20,22,24,26,28,30,32,34,36,38,40,42,44,46,48,50,52,54,56,58,60,-1,62,64,66,68,70,-1,72,74,76,78,80,-1,82,84,86,88,90,92,94,96,98,100,102,-1,-1,-1,-1,104,-1,-1,106,108,110,-1,112,114,116,118,120,122,124,126,128,130,132,134,136,-1,138,140,142,144,146,148,150,152,154,156,158,160,162,164,166,168,170,172,-1,174,-1,176,178,180,182,-1,-1,-1,-1,-1,-1,-1,-1,-1,-1,-1,-1,-1,-1,-1,-1,-1,-1,-1,-1,-1,-1,-1,-1,-1,-1,-1,-1,-1,-1,-1,-1,-1,-1,-1,-1,-1,-1,-1,-1,-1,-1,-1,-1,-1,-1,-1,-1,-1,-1,-1,-1,-1,-1,-1,-1,-1,-1,-1,-1,-1,-1,-1,-1,-1,-1,-1,-1,-1,-1,-1,-1,-1,-1,-1,-1,-1,-1,-1],"split_conditions":[2.5446928E-1,-4.6314505E-1,1.083221E0,-8.171209E-1,-1.3670601E-1,6.789311E-1,1.4265605E0,-2.2242107E0,-6.489368E-1,-3.9404348E-1,3.8099155E-2,4.2674577E-1,8.7292004E-1,1.132421E0,1.6713235E0,2.5740084E-1,1.7691497E0,7.3527937E0,-5.589241E-1,1.9349467E0,3.6303642E0,1.9940549E0,1.6079906E-1,2.934531E-1,6.0398036E-1,-2.7350227E-3,1.7691497E0,1.6675819E0,-8.04202E-1,1.7691497E0,2.619848E-1,-1.1885316E-1,1.5437655E0,-9.260471E-1,-1.6215159E0,-2.0228724E0,-4.468983E-2,1.868483E-1,1.2080892E-1,2.27343E-1,-4.3245873E-1,-1.06571585E-1,6.1028313E-2,1.7048087E0,-9.993304E-2,-7.171625E-1,-3.521854E-1,1.015375E0,-1.33433E0,-1.06907E0,-7.778001E-1,-1.7569364E0,1.7804296E0,6.3639486E-1,6.0995698E-2,1.7758733E-1,1.0012565E-1,2.2107373E-1,-7.663959E-1,2.3316477E-1,1.1621618E-1,-7.171625E-1,1.9680354E-1,6.956631E-1,-4.035759E-4,-1.2655118E0,1.820326E-2,-8.148354E-1,1.1097186E-1,-6.738121E-1,-6.3362974E-1,-5.367741E-1,4.3607324E-1,-1.7315519E-1,5.225018E-1,-6.426267E-1,2.752392E-1,-4.522626E-1,-3.0809066E-1,-2.8543407E-1,6.142381E-2,1.3204606E0,1.9349467E0,-1.1103348E-1,-5.721691E-2,-7.537487E-1,-5.7150626E-1,-6.619718E-1,1.3920686E0,5.7867616E-1,1.7804296E0,3.6895904E-1,-1.1976321E0,-1.215777E0,-8.148354E-1,-9.50436E-1,8.7116045E-1,1.5865843E-1,-9.50436E-1,1.3913715E-1,1.9940549E0,-6.0966548E-2,7.806845E-1,1.1658682E0,2.0222037E-1,-4.3655825E-1,-1.6376828E-1,-6.0404974E-1,-2.7740452E-1,-9.59382E-2,-2.259877E-1,-1.6672428E-1,-1.5439466E-1,-1.5220176E-1,-1.2378174E-1,-1.3515876E-1,-3.1363118E-1,-1.7641844E-1,-2.544461E-1,-8.477267E-2,-1.571558E-1,-1.4283575E-1,-1.2817456E-1,-1.0006714E-1,-1.343648E-1,-5.8506668E-2,-1.11449376E-1,-9.075445E-2,-1.3511963E-1,-5.3148873E-2,-9.272356E-2,-7.916901E-2,-4.9467396E-2,-1.6105264E-1,-8.8696286E-2,-9.937508E-2,-3.6888868E-2,-5.4674197E-2,-2.0124732E-2,-9.324041E-2,-5.9868593E-2,-2.0279028E-2,-4.4443797E-2,1.8378165E-2,4.965771E-2,3.411066E-2,-2.9437525E-2,-3.3743808E-1,3.8009886E-2,9.880022E-3,9.6320264E-2,-5.4551512E-2,3.3007793E-3,2.7818589E-2,4.5559306E-2,1.0314167E-2,3.9414544E-2,3.801235E-2,-1.7407484E-2,6.735157E-2,-6.1556627E-3,5.5269953E-2,-3.5007402E-2,1.1091707E-1,6.0062688E-2,7.885678E-2,2.2597097E-2,1.0728605E-1,7.608679E-2,1.0508036E-1,1.6163372E-1,7.687905E-2,1.2144045E-1,8.844411E-2,1.1801131E-1,5.2263755E-2,1.2464082E-1,1.5163888E-1,1.7524251E-1,3.364941E-2,1.6270684E-1,3.1407245E-2,1.7065829E-1],"split_indices":[0,0,0,0,0,0,0,0,0,0,0,0,0,0,0,2,1,1,0,2,1,2,0,0,0,2,1,2,2,1,0,2,2,0,0,2,0,2,2,2,0,2,0,2,0,2,2,2,2,2,2,2,2,2,0,0,0,0,2,0,0,2,2,2,0,0,2,2,2,0,2,2,2,2,2,2,2,0,0,2,2,2,2,0,0,2,2,2,2,2,2,0,2,2,2,2,2,0,2,0,2,2,2,0,0,0,0,0,0,0,0,0,0,0,0,0,0,0,0,0,0,0,0,0,0,0,0,0,0,0,0,0,0,0,0,0,0,0,0,0,0,0,0,0,0,0,0,0,0,0,0,0,0,0,0,0,0,0,0,0,0,0,0,0,0,0,0,0,0,0,0,0,0,0,0,0,0,0,0,0,0,0,0],"split_type":[0,0,0,0,0,0,0,0,0,0,0,0,0,0,0,0,0,0,0,0,0,0,0,0,0,0,0,0,0,0,0,0,0,0,0,0,0,0,0,0,0,0,0,0,0,0,0,0,0,0,0,0,0,0,0,0,0,0,0,0,0,0,0,0,0,0,0,0,0,0,0,0,0,0,0,0,0,0,0,0,0,0,0,0,0,0,0,0,0,0,0,0,0,0,0,0,0,0,0,0,0,0,0,0,0,0,0,0,0,0,0,0,0,0,0,0,0,0,0,0,0,0,0,0,0,0,0,0,0,0,0,0,0,0,0,0,0,0,0,0,0,0,0,0,0,0,0,0,0,0,0,0,0,0,0,0,0,0,0,0,0,0,0,0,0,0,0,0,0,0,0,0,0,0,0,0,0,0,0,0,0,0,0],"sum_hessian":[1.1315E4,6.95E3,4.365E3,4.15E3,2.8E3,2.438E3,1.927E3,2.459E3,1.691E3,1.388E3,1.412E3,1.28E3,1.158E3,8.53E2,1.074E3,4.5E1,2.414E3,8.22E2,8.69E2,3.17E2,1.071E3,6.43E2,7.69E2,5.2E2,7.6E2,5.8E2,5.78E2,1.29E2,7.24E2,4.91E2,5.83E2,2.6E1,1.9E1,2.354E3,6E1,8.19E2,3E0,4.33E2,4.36E2,3.05E2,1.2E1,1.067E3,4E0,6.26E2,1.7E1,4.68E2,3.01E2,1.24E2,3.96E2,5.43E2,2.17E2,3.05E2,2.75E2,5.74E2,4E0,1.24E2,5E0,1.67E2,5.57E2,4.87E2,4E0,1.8E1,8E0,1.6E1,3E0,1.872E3,4.82E2,2.1E1,3.9E1,3.5E1,7.84E2,2.72E2,1.61E2,2.54E2,1.82E2,1.68E2,1.37E2,8E0,4E0,5E2,5.67E2,6.13E2,1.3E1,8E0,9E0,1.06E2,3.62E2,1.12E2,1.89E2,9.6E1,2.8E1,4.1E1,3.55E2,6.4E1,4.79E2,6.1E1,1.56E2,2.5E1,2.8E2,2.5E2,2.5E1,4.06E2,1.68E2,7E0,5.5E2,9E0,9E0,5E0,3E0,7E0,9E0,7.13E2,1.159E3,2.54E2,2.28E2,4E0,1.7E1,2.2E1,1.7E1,2.6E1,9E0,1.74E2,6.1E2,1.51E2,1.21E2,3.8E1,1.23E2,2.14E2,4E1,5.9E1,1.23E2,8.4E1,8.4E1,7E0,1.3E2,5E0,3E0,4.25E2,7.5E1,8.2E1,4.85E2,5.79E2,3.4E1,1E1,3E0,5E0,3E0,4E0,5E0,1.01E2,5E0,2.1E1,3.41E2,7.3E1,3.9E1,1.63E2,2.6E1,8.4E1,1.2E1,2.5E1,3E0,2.8E1,1.3E1,1.1E1,3.44E2,4.7E1,1.7E1,4.6E1,4.33E2,4.5E1,1.6E1,1.11E2,4.5E1,8.2E1,1.98E2,1.2E1,1.3E1,2.62E2,1.44E2,2.8E1,1.4E2,3E0,4E0],"tree_param":{"num_deleted":"0","num_feature":"6","num_nodes":"183","size_leaf_vector":"1"}},{"base_weights":[-1.5391381E-2,-1.8693948E0,2.9864938E0,-2.6361856E0,-4.9883127E-1,1.9692072E0,4.2824783E0,-8.361569E0,-2.5745604E0,-1.0508658E0,-5.4856405E-2,1.4279754E0,2.7291923E0,3.6482239E0,4.6213803E0,-9.096621E0,-9.029753E-2,-2.8461554E0,-1.9485828E0,-1.225826E0,-9.330284E-1,-3.9172685E-1,2.2782218E-1,1.2781171E0,1.9654039E0,2.5212731E0,2.9571495E0,3.3899913E0,3.8086414E0,2.201532E-1,2.5019348E-1,-8.076708E0,-7.504318E-1,-3.1821873E0,-2.7298765E0,-2.2558122E0,-1.8201655E0,-2.2318525E0,-1.1728723E0,-1.5463206E0,-9.0165895E-1,-3.4947124E-1,-2.0998762E0,6.3247395E-1,7.612559E-2,8.470603E-1,1.3879938E0,1.9914566E0,-2.3396187E-2,2.7125509E0,2.3709455E0,2.9840224E0,1.2349967E0,1.7231914E-1,2.3653617E0,2.0846513E-1,3.6823065E0,-7.0467466E-1,-7.1554546E0,-3.126202E0,-4.3970203E0,-2.8664298E0,-2.5864563E0,-2.2933927E0,-1.6217117E-1,-1.6811098E0,-2.0780084E0,-1.4512683E0,-3.1002684E0,-4.5491055E-1,-1.2107834E0,-2.1373384E0,-4.2409757E-1,-9.14228E-1,3.4946585E-1,-3.768408E-1,6.344079E-1,-3.5969281E0,3.6426153E-2,7.9008013E-1,6.835511E-2,-1.715345E-1,3.6695135E-1,2.524271E0,7.896506E-1,2.121199E0,1.3419766E0,1.883464E0,2.3546994E0,2.875513E0,1.9277749E0,1.7967739E0,2.5339038E0,3.0993557E0,2.7116938E0,8.096303E-2,1.624258E-2,1.3596284E-1,1.4570463E0,2.5702252E0,3.7306204E0,-1.9208102E-2,-4.1339326E-1,-1.5667808E-1,-4.698828E-2,-2.3098178E-1,-8.294027E-2,-1.4229827E-1,-2.00284E-1,-1.3705347E-1,-1.20268956E-1,-9.038793E-2,-1.1845044E-1,-4.885624E-2,2.5111297E-2,-1.2119217E-1,-7.934495E-2,-9.922455E-2,-2.0918308E-1,1.0408811E-2,-9.899597E-2,-1.9871886E-1,-9.920755E-2,1.5272013E-2,-4.06452E-2,-7.647666E-2,-5.4179933E-2,-1.599471E-1,-7.817706E-2,1.1928139E-2,-5.7159252E-2,-4.0981222E-2,-5.6178242E-2,3.179553E-2,-0E0,-1.696073E-2,-4.7810372E-2,-2.2120287E-3,3.950677E-2,-8.567861E-3,-3.4841138E-1,6.2075086E-2,3.1923875E-2,-2.0228943E-2,3.8348798E-2,2.179744E-2,-1.2217314E-2,-1.834823E-2,2.176981E-2,1.6207922E-1,5.75445E-2,3.0284027E-2,6.727636E-2,1.12669826E-1,2.3037057E-2,6.7736685E-2,-1.676583E-2,9.634115E-2,1.9177167E-2,1.35196E-1,7.143786E-2,1.1781126E-1,1.5437846E-1,1.7575707E-2,1.04090765E-1,1.3232827E-2,1.0511052E-1,1.2240207E-2,1.2910838E-1,1.4412652E-1,1.662634E-1,3.948266E-2,1.621705E-1,1.7469693E-3,1.24494575E-1,1.4018361E-1,5.7198316E-2,1.8799366E-1,1.10848606E-1],"categories":[],"categories_nodes":[],"categories_segments":[],"categories_sizes":[],"default_left":[0,0,0,0,0,0,0,0,0,0,0,0,0,0,0,0,0,0,0,0,0,0,0,0,0,0,0,0,0,0,0,0,0,0,0,0,0,0,0,0,0,0,0,0,0,0,0,0,0,0,0,0,0,0,0,0,0,0,0,0,0,0,0,0,0,0,0,0,0,0,0,0,0,0,0,0,0,0,0,0,0,0,0,0,0,0,0,0,0,0,0,0,0,0,0,0,0,0,0,0,0,0,0,0,0,0,0,0,0,0,0,0,0,0,0,0,0,0,0,0,0,0,0,0,0,0,0,0,0,0,0,0,0,0,0,0,0,0,0,0,0,0,0,0,0,0,0,0,0,0,0,0,0,0,0,0,0,0,0,0,0,0,0,0,0,0,0,0,0,0,0,0,0,0,0,0,0,0,0],"id":4,"left_children":[1,3,5,7,9,11,13,15,17,19,21,23,25,27,29,31,-1,33,35,37,39,41,43,45,47,49,51,53,55,-1,-1,57,-1,59,61,63,65,67,69,71,73,75,77,79,81,83,85,87,-1,89,91,93,95,-1,97,-1,99,-1,101,103,105,107,109,111,113,115,117,119,121,123,125,127,129,131,133,135,137,139,-1,141,143,145,147,149,151,153,155,157,159,161,163,165,167,169,171,-1,-1,-1,173,175,177,-1,-1,-1,-1,-1,-1,-1,-1,-1,-1,-1,-1,-1,-1,-1,-1,-1,-1,-1,-1,-1,-1,-1,-1,-1,-1,-1,-1,-1,-1,-1,-1,-1,-1,-1,-1,-1,-1,-1,-1,-1,-1,-1,-1,-1,-1,-1,-1,-1,-1,-1,-1,-1,-1,-1,-1,-1,-1,-1,-1,-1,-1,-1,-1,-1,-1,-1,-1,-1,-1,-1,-1,-1,-1,-1,-1,-1,-1],"loss_changes":[6.2578453E4,7.303426E3,5.6507773E3,1.5499355E3,6.1132996E2,9.857539E2,3.8792578E2,2.0896094E2,7.438965E2,2.1566528E1,1.3189851E2,1.1056152E2,3.939258E1,1.3791992E1,7.940039E1,1.2972046E2,0E0,1.10833984E2,4.827539E1,2.0695007E1,1.1231567E1,4.4638268E1,4.6103367E1,5.088965E1,2.0419556E1,8.300049E0,1.7690918E1,6.463379E0,2.0878906E0,0E0,0E0,1.07663086E2,0E0,3.882422E1,3.6908203E1,3.0067749E1,3.0156494E1,9.280838E0,1.0823303E1,1.9398277E1,1.04244995E1,1.6855026E1,6.64212E1,1.8086418E1,3.9624725E1,1.9532715E1,2.6430786E1,6.987915E0,0E0,2.2879272E1,2.355188E1,5.5561523E0,2.4271927E0,0E0,1.0849075E0,0E0,6.1689453E0,0E0,2.5959436E2,8.763672E0,1.121521E1,1.5052734E1,2.4472168E1,9.364136E0,4.86985E0,3.9276E1,5.5668945E1,1.1993813E1,2.98851E-1,6.5596547E0,1.4378479E1,6.7049866E0,6.081312E0,1.1420715E1,7.626446E-1,1.2669312E1,1.906178E0,1.1357823E2,0E0,9.969208E0,1.5545011E1,1.3224247E1,1.28755E1,2.726059E0,2.1590408E1,9.6657715E0,1.8294678E1,1.4508179E1,1.674176E1,1.255249E1,9.222794E0,3.2432404E1,2.5048096E1,5.3706055E0,1.4624463E2,0E0,0E0,0E0,9.942237E0,1.7252197E0,3.9074707E0,0E0,0E0,0E0,0E0,0E0,0E0,0E0,0E0,0E0,0E0,0E0,0E0,0E0,0E0,0E0,0E0,0E0,0E0,0E0,0E0,0E0,0E0,0E0,0E0,0E0,0E0,0E0,0E0,0E0,0E0,0E0,0E0,0E0,0E0,0E0,0E0,0E0,0E0,0E0,0E0,0E0,0E0,0E0,0E0,0E0,0E0,0E0,0E0,0E0,0E0,0E0,0E0,0E0,0E0,0E0,0E0,0E0,0E0,0E0,0E0,0E0,0E0,0E0,0E0,0E0,0E0,0E0,0E0,0E0,0E0,0E0,0E0,0E0,0E0,0E0,0E0,0E0,0E0],"parents":[2147483647,0,0,1,1,2,2,3,3,4,4,5,5,6,6,7,7,8,8,9,9,10,10,11,11,12,12,13,13,14,14,15,15,17,17,18,18,19,19,20,20,21,21,22,22,23,23,24,24,25,25,26,26,27,27,28,28,31,31,33,33,34,34,35,35,36,36,37,37,38,38,39,39,40,40,41,41,42,42,43,43,44,44,45,45,46,46,47,47,49,49,50,50,51,51,52,52,54,54,56,56,58,58,59,59,60,60,61,61,62,62,63,63,64,64,65,65,66,66,67,67,68,68,69,69,70,70,71,71,72,72,73,73,74,74,75,75,76,76,77,77,79,79,80,80,81,81,82,82,83,83,84,84,85,85,86,86,87,87,88,88,89,89,90,90,91,91,92,92,93,93,94,94,98,98,99,99,100,100],"right_children":[2,4,6,8,10,12,14,16,18,20,22,24,26,28,30,32,-1,34,36,38,40,42,44,46,48,50,52,54,56,-1,-1,58,-1,60,62,64,66,68,70,72,74,76,78,80,82,84,86,88,-1,90,92,94,96,-1,98,-1,100,-1,102,104,106,108,110,112,114,116,118,120,122,124,126,128,130,132,134,136,138,140,-1,142,144,146,148,150,152,154,156,158,160,162,164,166,168,170,172,-1,-1,-1,174,176,178,-1,-1,-1,-1,-1,-1,-1,-1,-1,-1,-1,-1,-1,-1,-1,-1,-1,-1,-1,-1,-1,-1,-1,-1,-1,-1,-1,-1,-1,-1,-1,-1,-1,-1,-1,-1,-1,-1,-1,-1,-1,-1,-1,-1,-1,-1,-1,-1,-1,-1,-1,-1,-1,-1,-1,-1,-1,-1,-1,-1,-1,-1,-1,-1,-1,-1,-1,-1,-1,-1,-1,-1,-1,-1,-1,-1,-1,-1],"split_conditions":[2.5446928E-1,-4.0557858E-1,1.083221E0,-2.2242107E0,-1.3670601E-1,7.2305304E-1,1.3536943E0,1.1208365E0,-6.813444E-1,-2.9998046E-1,3.8099155E-2,6.18642E-1,9.019217E-1,1.1900737E0,1.743693E0,6.927878E-1,-9.029753E-2,-1.2488017E0,-6.0478354E-1,-1.7576948E0,-1.8014065E0,1.9940549E0,-7.080015E-1,3.2164994E-1,2.0501611E0,-4.8995218E-1,1.8776574E0,1.4363441E0,-6.619718E-1,2.201532E-1,2.5019348E-1,-1.3332021E0,-7.504318E-1,1.7691497E0,-9.140668E-1,1.7074572E0,5.268027E-1,-3.4278655E-1,-1.3332021E0,-2.0573299E-1,2.0501611E0,1.6675819E0,-5.721691E-2,8.7116045E-1,1.4568315E-1,-1.794529E0,-1.5315853E0,8.4783036E-1,-2.3396187E-2,7.6631576E-1,-7.778001E-1,6.0071635E-1,1.0365026E0,1.7231914E-1,1.132421E0,2.0846513E-1,-5.248044E-1,-7.0467466E-1,-8.2382417E-1,2.1919823E0,1.2196354E0,1.7691497E0,5.2377183E-2,-1.2379004E0,1.2080892E-1,-1.5118321E0,1.9349467E0,-9.3409294E-1,-6.619718E-1,-3.6510876E-1,-5.2617294E-1,-1.2093475E0,-1.6056277E-1,6.635309E-1,-2.0573299E-1,1.3204606E0,-1.1103348E-1,-1.1103348E-1,3.6426153E-2,-8.961512E-1,1.3920686E0,5.292162E-2,-5.2617294E-1,2.7924043E-1,8.6432964E-1,5.879446E-1,1.7691497E0,1.7074572E0,4.4830996E-1,-1.3724467E0,7.940466E-1,-1.1632867E-1,-4.6445268E-1,1.0034213E0,7.6631576E-1,8.096303E-2,1.624258E-2,1.3596284E-1,-6.5205187E-1,-5.4877853E-1,1.5458325E0,-1.9208102E-2,-4.1339326E-1,-1.5667808E-1,-4.698828E-2,-2.3098178E-1,-8.294027E-2,-1.4229827E-1,-2.00284E-1,-1.3705347E-1,-1.20268956E-1,-9.038793E-2,-1.1845044E-1,-4.885624E-2,2.5111297E-2,-1.2119217E-1,-7.934495E-2,-9.922455E-2,-2.0918308E-1,1.0408811E-2,-9.899597E-2,-1.9871886E-1,-9.920755E-2,1.5272013E-2,-4.06452E-2,-7.647666E-2,-5.4179933E-2,-1.599471E-1,-7.817706E-2,1.1928139E-2,-5.7159252E-2,-4.0981222E-2,-5.6178242E-2,3.179553E-2,-0E0,-1.696073E-2,-4.7810372E-2,-2.2120287E-3,3.950677E-2,-8.567861E-3,-3.4841138E-1,6.2075086E-2,3.1923875E-2,-2.0228943E-2,3.8348798E-2,2.179744E-2,-1.2217314E-2,-1.834823E-2,2.176981E-2,1.6207922E-1,5.75445E-2,3.0284027E-2,6.727636E-2,1.12669826E-1,2.3037057E-2,6.7736685E-2,-1.676583E-2,9.634115E-2,1.9177167E-2,1.35196E-1,7.143786E-2,1.1781126E-1,1.5437846E-1,1.7575707E-2,1.04090765E-1,1.3232827E-2,1.0511052E-1,1.2240207E-2,1.2910838E-1,1.4412652E-1,1.662634E-1,3.948266E-2,1.621705E-1,1.7469693E-3,1.24494575E-1,1.4018361E-1,5.7198316E-2,1.8799366E-1,1.10848606E-1],"split_indices":[0,0,0,0,0,0,0,3,0,0,0,0,0,0,0,3,0,0,0,3,2,2,3,0,3,3,3,3,2,0,0,3,0,1,0,3,3,0,3,0,3,2,0,2,0,3,3,2,0,2,2,2,0,0,0,0,2,0,3,3,2,1,2,2,2,3,2,2,2,0,3,3,0,3,0,2,0,0,0,2,2,0,3,0,3,0,1,3,3,3,2,3,3,0,2,0,0,0,2,2,3,0,0,0,0,0,0,0,0,0,0,0,0,0,0,0,0,0,0,0,0,0,0,0,0,0,0,0,0,0,0,0,0,0,0,0,0,0,0,0,0,0,0,0,0,0,0,0,0,0,0,0,0,0,0,0,0,0,0,0,0,0,0,0,0,0,0,0,0,0,0,0,0,0,0,0,0,0,0],"split_type":[0,0,0,0,0,0,0,0,0,0,0,0,0,0,0,0,0,0,0,0,0,0,0,0,0,0,0,0,0,0,0,0,0,0,0,0,0,0,0,0,0,0,0,0,0,0,0,0,0,0,0,0,0,0,0,0,0,0,0,0,0,0,0,0,0,0,0,0,0,0,0,0,0,0,0,0,0,0,0,0,0,0,0,0,0,0,0,0,0,0,0,0,0,0,0,0,0,0,0,0,0,0,0,0,0,0,0,0,0,0,0,0,0,0,0,0,0,0,0,0,0,0,0,0,0,0,0,0,0,0,0,0,0,0,0,0,0,0,0,0,0,0,0,0,0,0,0,0,0,0,0,0,0,0,0,0,0,0,0,0,0,0,0,0,0,0,0,0,0,0,0,0,0,0,0,0,0,0,0],"sum_hessian":[1.1242E4,6.95E3,4.292E3,4.456E3,2.494E3,2.406E3,1.886E3,4.6E1,4.41E3,1.111E3,1.383E3,1.407E3,9.99E2,6.61E2,1.225E3,4.1E1,5E0,3.073E3,1.337E3,4.43E2,6.68E2,6.31E2,7.52E2,1.103E3,3.04E2,5.29E2,4.7E2,2.62E2,3.99E2,7.88E2,4.37E2,3.7E1,4E0,7.83E2,2.29E3,3.89E2,9.48E2,2E1,4.23E2,3E1,6.38E2,6.17E2,1.4E1,2.04E2,5.48E2,2.26E2,8.77E2,3.01E2,3E0,2.25E2,3.04E2,4.62E2,8E0,2.46E2,1.6E1,9.5E1,3.04E2,3E0,3.4E1,7.52E2,3.1E1,1.163E3,1.127E3,3.82E2,7E0,6.21E2,3.27E2,1.2E1,8E0,2.2E1,4.01E2,1.9E1,1.1E1,6.32E2,6E0,6.01E2,1.6E1,9E0,5E0,1.59E2,4.5E1,2.96E2,2.52E2,6E0,2.2E2,4.9E1,8.28E2,2.37E2,6.4E1,1.84E2,4.1E1,7E1,2.34E2,3.17E2,1.45E2,5E0,3E0,1E1,6E0,1.5E1,2.89E2,5E0,2.9E1,7.49E2,3E0,2.8E1,3E0,1.146E3,1.7E1,6E2,5.27E2,5.5E1,3.27E2,3E0,4E0,6.7E1,5.54E2,3.15E2,1.2E1,3E0,9E0,3E0,5E0,7E0,1.5E1,1.11E2,2.9E2,5E0,1.4E1,6E0,5E0,4.39E2,1.93E2,3E0,3E0,5.66E2,3.5E1,3E0,1.3E1,5E0,4E0,3.8E1,1.21E2,2.7E1,1.8E1,3.1E1,2.65E2,2.1E1,2.31E2,3E0,3E0,1.67E2,5.3E1,4.5E1,4E0,8.22E2,6E0,2.3E2,7E0,4.5E1,1.9E1,5.7E1,1.27E2,4E0,3.7E1,1.2E1,5.8E1,5E0,2.29E2,1.69E2,1.48E2,3.2E1,1.13E2,3E0,3E0,1.2E1,3E0,2.82E2,7E0],"tree_param":{"num_deleted":"0","num_feature":"6","num_nodes":"179","size_leaf_vector":"1"}},{"base_weights":[1.8438704E-2,2.9299426E0,-1.9860209E0,4.2181544E0,1.7238709E0,-8.881686E-1,-3.073187E0,4.8378015E0,3.590196E0,2.4699278E0,1.2363896E0,-1.6378063E-1,-1.4700335E0,-2.4965405E0,-3.5302467E0,2.5896358E-1,4.5722637E0,3.9561841E0,3.2362905E0,2.56899E0,2.028076E0,1.5215424E0,8.9261353E-1,1.4226745E-1,-5.4832476E-1,-1.0947546E0,-1.6599034E0,-2.2375348E0,-2.7868981E0,-3.4357817E0,-6.854252E0,2.3116378E-1,3.1839688E0,2.3541467E-1,3.8737054E0,1.9837505E-1,3.1601515E0,1.5043078E-1,2.4778664E0,2.2395778E0,1.3307842E0,1.9968245E0,1.4688287E0,1.0465358E0,4.789379E-1,2.61426E-1,-1.8188357E-1,-1.9906574E-1,-8.0039495E-1,-3.8321656E-1,-1.2024281E0,-1.5670013E0,-1.946447E0,-2.0989077E0,-2.5373158E0,-2.720965E0,-3.5112228E0,-3.2324882E0,-3.523508E0,-4.298203E-1,-3.4623923E0,-5.510667E-3,1.989154E-1,1.9416736E-1,8.459728E-2,3.277825E0,2.8763516E0,2.678075E0,2.3112814E0,2.4063795E0,1.850277E0,1.4770342E0,7.0847706E-3,1.5095035E0,1.1398268E-1,1.6440803E0,1.3101585E0,1.3006585E0,9.0773004E-1,-3.3308495E-2,9.8702013E-1,5.3616816E-1,9.878757E-2,6.0062784E-1,-3.0650198E-1,-9.373515E-2,-7.7265376E-1,-7.3057634E-1,-1.2953538E0,-4.7637516E-1,4.3492448E-1,-2.187628E0,-1.1111553E0,-1.4402975E0,-1.8782295E0,-1.6421624E0,-2.3627343E0,-2.126996E0,-1.4460859E0,-2.2664833E0,-2.7706172E0,-2.7485414E0,-1.5975422E0,-3.9006266E-1,-3.111774E0,-6.9884524E-2,-1.6198088E-1,-2.5469706E0,-1.765754E-1,-1.21857025E-1,-2.0657025E-1,1.6492239E-1,1.0445338E-1,1.633008E-1,1.3439138E-1,1.5332584E-1,1.2732758E-1,1.18407086E-1,7.9055235E-2,9.8482214E-2,1.3615547E-1,7.113409E-2,1.0657229E-1,4.6097163E-2,8.2930386E-2,1.04402974E-1,3.2534063E-2,8.315163E-2,1.53930215E-2,2.903764E-2,6.71177E-2,7.511898E-2,4.5212347E-2,5.153788E-2,3.670154E-2,1.1853273E-2,-7.722207E-2,6.9006324E-2,3.386217E-2,3.956679E-3,3.3930715E-2,2.5240805E-3,5.363244E-2,1.6172502E-2,8.424803E-2,-6.8255514E-2,-1.111874E-2,1.8367574E-2,-7.76216E-3,-5.2854408E-2,2.0946122E-3,-2.381056E-2,-4.3546405E-2,-0E0,-6.932238E-2,-1.7085617E-2,-7.828976E-2,4.572619E-2,-1.8410282E-2,-4.2302346E-1,-7.678736E-2,-4.895448E-2,-6.875746E-2,-6.2807865E-2,-7.972921E-2,-2.4644017E-1,-8.822935E-2,-9.849583E-2,-5.8342516E-2,-1.2106134E-1,-5.1662732E-2,-9.417909E-2,-1.0914967E-1,-8.11201E-2,-1.805388E-2,-1.3489674E-1,-9.4171286E-2,-3.3360562E-1,-1.278481E-1,-4.769319E-2,-1.3777183E-1,-5.7431247E-2,-1.14363626E-1,-9.2205435E-2,-1.74224E-1,-7.005049E-2,-1.427627E-1],"categories":[],"categories_nodes":[],"categories_segments":[],"categories_sizes":[],"default_left":[0,0,0,0,0,0,0,0,0,0,0,0,0,0,0,0,0,0,0,0,0,0,0,0,0,0,0,0,0,0,0,0,0,0,0,0,0,0,0,0,0,0,0,0,0,0,0,0,0,0,0,0,0,0,0,0,0,0,0,0,0,0,0,0,0,0,0,0,0,0,0,0,0,0,0,0,0,0,0,0,0,0,0,0,0,0,0,0,0,0,0,0,0,0,0,0,0,0,0,0,0,0,0,0,0,0,0,0,0,0,0,0,0,0,0,0,0,0,0,0,0,0,0,0,0,0,0,0,0,0,0,0,0,0,0,0,0,0,0,0,0,0,0,0,0,0,0,0,0,0,0,0,0,0,0,0,0,0,0,0,0,0,0,0,0,0,0,0,0,0,0,0,0,0,0,0,0,0,0,0,0,0,0,0,0,0,0],"id":5,"left_children":[1,3,5,7,9,11,13,15,17,19,21,23,25,27,29,-1,31,33,35,37,39,41,43,45,47,49,51,53,55,57,59,-1,61,-1,63,-1,65,-1,67,69,71,73,75,77,79,81,83,85,87,89,91,93,95,97,99,101,103,105,107,-1,109,-1,-1,-1,-1,111,113,115,117,119,121,123,-1,125,-1,127,129,131,133,135,137,139,141,143,145,147,149,151,153,155,157,159,161,163,165,167,169,171,173,175,177,179,181,-1,183,-1,-1,185,-1,-1,-1,-1,-1,-1,-1,-1,-1,-1,-1,-1,-1,-1,-1,-1,-1,-1,-1,-1,-1,-1,-1,-1,-1,-1,-1,-1,-1,-1,-1,-1,-1,-1,-1,-1,-1,-1,-1,-1,-1,-1,-1,-1,-1,-1,-1,-1,-1,-1,-1,-1,-1,-1,-1,-1,-1,-1,-1,-1,-1,-1,-1,-1,-1,-1,-1,-1,-1,-1,-1,-1,-1,-1,-1,-1,-1,-1,-1],"loss_changes":[6.629695E4,7.1887617E3,8.0270645E3,8.530117E2,8.672466E2,1.4111858E3,8.814238E2,7.7259766E1,1.3102637E2,3.5693848E1,1.4054199E2,1.758283E2,1.3022607E2,1.0591797E2,5.666875E2,0E0,2.9895508E1,1.4649414E1,1.8650879E1,2.2762695E1,2.2913757E1,1.6537964E1,4.137097E1,3.2191807E1,5.802173E1,4.741754E1,2.9368408E1,2.733252E1,2.3348145E1,2.0625E1,2.7039648E2,0E0,6.8859436E1,0E0,3.305664E0,0E0,7.4555664E0,0E0,1.4723145E1,3.8882446E0,7.2806244E0,6.654907E0,1.746045E1,1.5529907E1,4.72359E1,2.7095871E1,2.1998114E1,1.6697104E1,1.2121048E1,6.61355E0,4.615686E1,3.3833252E1,3.3340454E1,6.67041E0,8.823608E0,1.5249512E1,6.8883606E1,2.3989258E0,3.125E-1,0E0,2.306549E0,0E0,0E0,0E0,0E0,1.4697266E0,2.5268555E0,6.1901855E0,1.0724121E1,6.754944E0,2.0224E0,2.1436005E0,0E0,1.37706375E1,0E0,7.799988E0,7.975403E0,1.1754913E1,5.7770386E0,3.767683E1,9.941124E0,1.45837555E1,1.7898165E1,8.571299E0,1.6814886E1,6.757266E0,1.0108252E1,1.1553055E1,5.470894E0,1.0423731E1,3.857991E0,1.7001875E2,1.5850464E1,1.6718506E1,8.319556E1,2.4650238E1,6.7178955E0,2.651123E0,4.1897545E0,1.4292969E1,8.8714355E1,4.8095703E0,2.6025658E0,0E0,1.760968E1,0E0,0E0,5.200577E-1,0E0,0E0,0E0,0E0,0E0,0E0,0E0,0E0,0E0,0E0,0E0,0E0,0E0,0E0,0E0,0E0,0E0,0E0,0E0,0E0,0E0,0E0,0E0,0E0,0E0,0E0,0E0,0E0,0E0,0E0,0E0,0E0,0E0,0E0,0E0,0E0,0E0,0E0,0E0,0E0,0E0,0E0,0E0,0E0,0E0,0E0,0E0,0E0,0E0,0E0,0E0,0E0,0E0,0E0,0E0,0E0,0E0,0E0,0E0,0E0,0E0,0E0,0E0,0E0,0E0,0E0,0E0,0E0,0E0,0E0,0E0,0E0,0E0,0E0,0E0,0E0,0E0,0E0,0E0],"parents":[2147483647,0,0,1,1,2,2,3,3,4,4,5,5,6,6,7,7,8,8,9,9,10,10,11,11,12,12,13,13,14,14,16,16,17,17,18,18,19,19,20,20,21,21,22,22,23,23,24,24,25,25,26,26,27,27,28,28,29,29,30,30,32,32,34,34,36,36,38,38,39,39,40,40,41,41,42,42,43,43,44,44,45,45,46,46,47,47,48,48,49,49,50,50,51,51,52,52,53,53,54,54,55,55,56,56,57,57,58,58,60,60,65,65,66,66,67,67,68,68,69,69,70,70,71,71,73,73,75,75,76,76,77,77,78,78,79,79,80,80,81,81,82,82,83,83,84,84,85,85,86,86,87,87,88,88,89,89,90,90,91,91,92,92,93,93,94,94,95,95,96,96,97,97,98,98,99,99,100,100,101,101,102,102,104,104,107,107],"right_children":[2,4,6,8,10,12,14,16,18,20,22,24,26,28,30,-1,32,34,36,38,40,42,44,46,48,50,52,54,56,58,60,-1,62,-1,64,-1,66,-1,68,70,72,74,76,78,80,82,84,86,88,90,92,94,96,98,100,102,104,106,108,-1,110,-1,-1,-1,-1,112,114,116,118,120,122,124,-1,126,-1,128,130,132,134,136,138,140,142,144,146,148,150,152,154,156,158,160,162,164,166,168,170,172,174,176,178,180,182,-1,184,-1,-1,186,-1,-1,-1,-1,-1,-1,-1,-1,-1,-1,-1,-1,-1,-1,-1,-1,-1,-1,-1,-1,-1,-1,-1,-1,-1,-1,-1,-1,-1,-1,-1,-1,-1,-1,-1,-1,-1,-1,-1,-1,-1,-1,-1,-1,-1,-1,-1,-1,-1,-1,-1,-1,-1,-1,-1,-1,-1,-1,-1,-1,-1,-1,-1,-1,-1,-1,-1,-1,-1,-1,-1,-1,-1,-1,-1,-1,-1,-1,-1],"split_conditions":[-1.706324E-1,-1.011575E0,7.056187E-1,-1.4615507E0,-6.72804E-1,2.7381214E-1,1.0020268E0,-1.7458051E0,-1.2364191E0,-7.3951066E-1,-3.924414E-1,9.393236E-2,4.335679E-1,8.664999E-1,1.888534E0,2.5896358E-1,2.0479395E0,7.795817E-1,6.358173E-1,4.843836E-1,9.019217E-1,-1.0925558E-2,4.9667472E-1,2.7924043E-1,-1.9489774E-1,-7.135009E-1,-2.674633E-1,-5.421092E-1,-4.2339608E-1,1.1095076E0,-2.2242107E0,2.3116378E-1,-1.7244861E0,2.3541467E-1,1.9233726E0,1.9837505E-1,1.281767E0,1.5043078E-1,-9.0280235E-1,5.010098E-1,1.3157969E0,-2.473563E-1,-5.433013E-1,-3.029744E-1,6.5329653E-1,-6.337833E-2,-1.1940359E0,2.5272894E-1,2.7924043E-1,1.4363441E0,-6.0478354E-1,7.692577E-1,5.611634E-1,-5.671273E-1,4.4492837E-2,1.7763828E0,-4.143363E-1,-2.2242107E0,-2.052958E0,-4.298203E-1,6.379097E-1,-5.510667E-3,1.989154E-1,1.9416736E-1,8.459728E-2,1.6773728E0,-1.1793654E0,7.506188E-1,1.2650448E0,-6.735969E-1,1.0055598E0,-1.6510692E-1,7.0847706E-3,-1.005821E0,1.1398268E-1,1.8776574E0,-1.5854477E0,6.275142E-1,1.890769E-1,1.295821E0,7.506188E-1,-1.4087553E-1,1.7074572E0,-1.2988461E0,2.934531E-1,-7.4432516E-1,7.17907E-1,1.5602267E-1,-1.1512171E0,1.1748952E0,3.333712E-1,2.8517553E-1,6.1336833E-1,5.804691E-1,4.5341215E-1,2.4947636E-1,9.802533E-2,-9.1546685E-1,8.3680785E-1,-9.037434E-1,1.3477711E-1,-2.052958E0,9.4300115E-1,-3.9006266E-1,9.002864E-1,-6.9884524E-2,-1.6198088E-1,-1.4922441E0,-1.765754E-1,-1.21857025E-1,-2.0657025E-1,1.6492239E-1,1.0445338E-1,1.633008E-1,1.3439138E-1,1.5332584E-1,1.2732758E-1,1.18407086E-1,7.9055235E-2,9.8482214E-2,1.3615547E-1,7.113409E-2,1.0657229E-1,4.6097163E-2,8.2930386E-2,1.04402974E-1,3.2534063E-2,8.315163E-2,1.53930215E-2,2.903764E-2,6.71177E-2,7.511898E-2,4.5212347E-2,5.153788E-2,3.670154E-2,1.1853273E-2,-7.722207E-2,6.9006324E-2,3.386217E-2,3.956679E-3,3.3930715E-2,2.5240805E-3,5.363244E-2,1.6172502E-2,8.424803E-2,-6.8255514E-2,-1.111874E-2,1.8367574E-2,-7.76216E-3,-5.2854408E-2,2.0946122E-3,-2.381056E-2,-4.3546405E-2,-0E0,-6.932238E-2,-1.7085617E-2,-7.828976E-2,4.572619E-2,-1.8410282E-2,-4.2302346E-1,-7.678736E-2,-4.895448E-2,-6.875746E-2,-6.2807865E-2,-7.972921E-2,-2.4644017E-1,-8.822935E-2,-9.849583E-2,-5.8342516E-2,-1.2106134E-1,-5.1662732E-2,-9.417909E-2,-1.0914967E-1,-8.11201E-2,-1.805388E-2,-1.3489674E-1,-9.4171286E-2,-3.3360562E-1,-1.278481E-1,-4.769319E-2,-1.3777183E-1,-5.7431247E-2,-1.14363626E-1,-9.2205435E-2,-1.74224E-1,-7.005049E-2,-1.427627E-1],"split_indices":[5,5,5,5,5,5,5,5,5,5,5,5,5,5,5,0,0,0,0,0,0,0,0,0,0,0,0,0,0,5,0,0,5,0,0,0,0,0,5,3,0,3,5,5,0,5,3,5,0,3,0,3,5,0,3,3,0,0,3,0,3,0,0,0,0,3,5,0,0,3,3,3,0,3,0,3,3,3,0,3,0,5,3,3,0,0,3,5,3,3,5,5,3,5,5,3,0,3,5,3,3,3,5,0,5,0,0,0,0,0,0,0,0,0,0,0,0,0,0,0,0,0,0,0,0,0,0,0,0,0,0,0,0,0,0,0,0,0,0,0,0,0,0,0,0,0,0,0,0,0,0,0,0,0,0,0,0,0,0,0,0,0,0,0,0,0,0,0,0,0,0,0,0,0,0,0,0,0,0,0,0,0,0,0,0,0,0],"split_type":[0,0,0,0,0,0,0,0,0,0,0,0,0,0,0,0,0,0,0,0,0,0,0,0,0,0,0,0,0,0,0,0,0,0,0,0,0,0,0,0,0,0,0,0,0,0,0,0,0,0,0,0,0,0,0,0,0,0,0,0,0,0,0,0,0,0,0,0,0,0,0,0,0,0,0,0,0,0,0,0,0,0,0,0,0,0,0,0,0,0,0,0,0,0,0,0,0,0,0,0,0,0,0,0,0,0,0,0,0,0,0,0,0,0,0,0,0,0,0,0,0,0,0,0,0,0,0,0,0,0,0,0,0,0,0,0,0,0,0,0,0,0,0,0,0,0,0,0,0,0,0,0,0,0,0,0,0,0,0,0,0,0,0,0,0,0,0,0,0,0,0,0,0,0,0,0,0,0,0,0,0,0,0,0,0,0,0],"sum_hessian":[1.1358E4,4.631E3,6.727E3,2.238E3,2.393E3,3.348E3,3.379E3,1.123E3,1.115E3,9.44E2,1.449E3,1.492E3,1.856E3,1.497E3,1.882E3,4.83E2,6.4E2,5.43E2,5.72E2,7.67E2,1.77E2,7.9E2,6.59E2,8.31E2,6.61E2,6.26E2,1.23E3,7.96E2,7.01E2,1.832E3,5E1,6.15E2,2.5E1,4.8E1,4.95E2,4.9E1,5.23E2,1.26E2,6.41E2,1.34E2,4.3E1,7.5E1,7.15E2,4.79E2,1.8E2,6.08E2,2.23E2,2.78E2,3.83E2,8.3E1,5.43E2,9.34E2,2.96E2,5.5E2,2.46E2,6.47E2,5.4E1,5.64E2,1.268E3,3.2E1,1.8E1,5E0,2E1,4.92E2,3E0,3.62E2,1.61E2,2.84E2,3.57E2,9E1,4.4E1,3.8E1,5E0,3E1,4.5E1,3.35E2,3.8E2,1.66E2,3.13E2,9E1,9E1,2.25E2,3.83E2,3E1,1.93E2,2.36E2,4.2E1,3.38E2,4.5E1,7.5E1,8E0,4.4E1,4.99E2,6.68E2,2.66E2,1.74E2,1.22E2,5.25E2,2.5E1,1.19E2,1.27E2,6.3E2,1.7E1,3E0,5.1E1,3E0,5.61E2,1.3E1,1.255E3,9E0,9E0,3.54E2,8E0,4.7E1,1.14E2,6.6E1,2.18E2,3.29E2,2.8E1,4.1E1,4.9E1,2E1,2.4E1,1.1E1,2.7E1,1.7E1,1.3E1,3.3E2,5E0,1.7E1,3.63E2,1.08E2,5.8E1,1.8E2,1.33E2,7.7E1,1.3E1,3.8E1,5.2E1,5.4E1,1.71E2,3.66E2,1.7E1,2.5E1,5E0,1.3E1,1.8E2,2.7E1,2.09E2,3.1E1,1.1E1,1.22E2,2.16E2,3E0,4.2E1,6.8E1,7E0,5E0,3E0,3E0,4.1E1,3.36E2,1.63E2,3.09E2,3.59E2,8E0,2.58E2,1.01E2,7.3E1,1.16E2,6E0,1.05E2,4.2E2,2.1E1,4E0,5.3E1,6.6E1,5E0,1.22E2,3E0,6.27E2,1.2E1,5E0,1.3E1,3.8E1,4E0,9E0],"tree_param":{"num_deleted":"0","num_feature":"6","num_nodes":"187","size_leaf_vector":"1"}},{"base_weights":[-7.983314E-4,-1.6795233E0,2.713638E0,-2.4683537E0,-6.3864195E-1,1.7951742E0,3.8960252E0,-6.6941986E0,-2.416887E0,-1.1575912E0,-5.2919965E-2,1.2708448E0,2.5024517E0,3.556657E0,2.2292648E-1,-2.1590838E0,-7.4313664E0,-2.6778343E0,-2.0649998E0,-1.3776231E0,-9.3846273E-1,-3.5420552E-1,2.080522E-1,8.523783E-1,1.5244007E0,2.2658226E0,2.681964E0,3.3741198E0,3.8611526E0,-2.7860084E-1,4.915396E-2,-8.359721E0,-1.6468655E-1,-2.6372025E0,-4.0850506E0,-2.2412503E0,-1.795381E0,-1.3900086E0,6.908658E-2,-1.0841041E0,-7.5534105E-1,1.01376645E-1,-4.11695E-1,6.7056185E-1,9.608996E-2,1.4025179E0,7.7863705E-1,1.3836656E0,1.781002E0,2.299041E0,1.6997128E0,3.0252125E0,2.5592923E0,3.1691155E0,3.4807105E0,1.9354545E-1,9.0980515E-2,-1.079121E1,-2.6237655E-1,-2.8534515E0,-2.5301597E0,-4.4873443E0,-2.9543304E0,-2.2464497E0,-3.660239E-2,-2.2511177E0,-1.7593044E0,-1.3736908E0,-1.8253131E-1,-1.0012861E0,-2.6959076E0,-9.653232E-1,-5.032691E-1,-8.409497E-1,3.77552E-1,-3.7407723E-1,-9.5298177E-1,1.1798894E0,4.4766784E-1,-6.509483E-2,3.435683E-1,1.118288E0,2.1257718E0,7.9885936E-1,-6.529817E-1,1.4444131E0,9.9117273E-1,1.9986842E0,1.6385976E0,2.2602322E0,3.087048E0,8.242824E-1,1.3530335E-1,3.0888078E0,1.9490519E0,2.2172887E0,2.6767612E0,1.6057967E-1,9.4167516E-2,1.7451173E-1,9.298945E-2,-7.8089565E-1,-4.3171045E-1,-1.4303102E-1,-4.2041045E-2,-1.2758149E-1,-1.00886464E-1,-2.5404E-1,-1.5170869E-1,-1.7144148E-1,-8.1839226E-2,-1.1158929E-1,-2.1447904E-1,-3.9152943E-2,-1.2723348E-1,-7.00986E-2,-9.100955E-2,-6.9354214E-2,4.317989E-3,-5.365023E-2,-2.2758136E-2,-3.2244048E-1,-7.138239E-2,-2.5401318E-2,-5.709469E-2,-3.300603E-2,4.7662933E-3,3.8109858E-2,-6.2303334E-2,-4.28131E-3,3.7984256E-2,-1.27706025E-2,-3.0376006E-2,-6.004584E-2,2.5575085E-2,4.20837E-2,8.8549726E-2,-1.5287257E-2,3.4561288E-2,-5.290866E-4,-1.724514E-2,-4.1407853E-2,1.8111888E-2,1.1445107E-2,5.975802E-2,1.2843011E-1,6.74683E-2,3.483163E-2,5.3257085E-2,-6.0420353E-2,2.0344544E-3,7.051071E-2,1.3919462E-1,8.133194E-2,3.4967244E-2,8.1720315E-2,1.1359139E-1,4.7273017E-2,8.8660754E-2,1.1556081E-1,2.6477693E-2,1.7882149E-1,5.8862288E-2,6.779308E-2,2.2136595E-3,7.1604185E-2,1.5635574E-1,4.5937654E-2,1.318921E-1,1.3283883E-1,9.709624E-3,1.409127E-1,1.1809703E-1],"categories":[],"categories_nodes":[],"categories_segments":[],"categories_sizes":[],"default_left":[0,0,0,0,0,0,0,0,0,0,0,0,0,0,0,0,0,0,0,0,0,0,0,0,0,0,0,0,0,0,0,0,0,0,0,0,0,0,0,0,0,0,0,0,0,0,0,0,0,0,0,0,0,0,0,0,0,0,0,0,0,0,0,0,0,0,0,0,0,0,0,0,0,0,0,0,0,0,0,0,0,0,0,0,0,0,0,0,0,0,0,0,0,0,0,0,0,0,0,0,0,0,0,0,0,0,0,0,0,0,0,0,0,0,0,0,0,0,0,0,0,0,0,0,0,0,0,0,0,0,0,0,0,0,0,0,0,0,0,0,0,0,0,0,0,0,0,0,0,0,0,0,0,0,0,0,0,0,0,0,0,0,0,0,0,0,0,0,0,0,0,0,0],"id":6,"left_children":[1,3,5,7,9,11,13,15,17,19,21,23,25,27,-1,29,31,33,35,37,39,41,43,45,47,49,51,53,55,-1,-1,57,-1,59,61,63,65,67,-1,69,71,73,75,77,79,81,83,85,87,89,91,93,95,97,99,-1,-1,101,-1,103,105,107,109,111,-1,113,115,117,-1,119,121,123,125,127,129,131,133,135,137,139,141,143,145,147,149,151,153,155,157,159,161,163,-1,165,167,169,171,-1,-1,-1,-1,-1,-1,-1,-1,-1,-1,-1,-1,-1,-1,-1,-1,-1,-1,-1,-1,-1,-1,-1,-1,-1,-1,-1,-1,-1,-1,-1,-1,-1,-1,-1,-1,-1,-1,-1,-1,-1,-1,-1,-1,-1,-1,-1,-1,-1,-1,-1,-1,-1,-1,-1,-1,-1,-1,-1,-1,-1,-1,-1,-1,-1,-1,-1,-1,-1,-1,-1,-1,-1,-1,-1,-1],"loss_changes":[5.1277477E4,5.707076E3,4.6621523E3,8.4308203E2,9.113937E2,8.9463135E2,3.420332E2,1.4012378E2,3.5293555E2,7.513794E1,1.1095258E2,1.4626685E2,3.7180664E1,5.166797E1,0E0,9.172857E1,1.24947754E2,1.1668945E2,7.488428E1,2.8954468E1,2.0333252E1,1.722799E1,3.9007317E1,2.010971E1,2.8492798E1,4.173584E0,1.6121582E1,4.5615234E0,1.0322266E0,0E0,0E0,1.839209E2,0E0,4.2728516E1,1.3746582E1,5.944824E0,6.5720215E0,2.355066E1,0E0,5.6065308E1,1.8316483E1,1.9529463E1,1.1361496E1,1.59973755E1,2.4382954E1,9.838165E0,1.4085144E1,1.1772217E1,5.753845E0,5.423584E0,2.2965202E1,3.536499E0,1.1010986E1,7.970215E0,3.6865234E-1,0E0,0E0,3.9717163E1,0E0,7.526367E0,1.0544922E1,2.0855286E1,5.759491E0,1.976416E1,0E0,1.7067398E1,1.0636963E1,1.5581055E1,0E0,1.5926483E1,8.9958466E1,1.4919464E1,1.5611347E1,1.2038988E1,1.0398208E1,1.4883575E1,1.411779E1,7.044651E0,1.9333849E1,5.6044846E0,5.5253906E0,2.729E0,1.6432724E0,1.16579895E1,2.862917E0,1.7917847E1,1.3280113E1,7.338806E0,1.568689E1,3.4404297E1,1.1202881E1,6.8487797E0,0E0,3.760254E0,5.027073E0,1.0322681E2,6.9907227E0,0E0,0E0,0E0,0E0,0E0,0E0,0E0,0E0,0E0,0E0,0E0,0E0,0E0,0E0,0E0,0E0,0E0,0E0,0E0,0E0,0E0,0E0,0E0,0E0,0E0,0E0,0E0,0E0,0E0,0E0,0E0,0E0,0E0,0E0,0E0,0E0,0E0,0E0,0E0,0E0,0E0,0E0,0E0,0E0,0E0,0E0,0E0,0E0,0E0,0E0,0E0,0E0,0E0,0E0,0E0,0E0,0E0,0E0,0E0,0E0,0E0,0E0,0E0,0E0,0E0,0E0,0E0,0E0,0E0,0E0,0E0,0E0,0E0,0E0,0E0,0E0],"parents":[2147483647,0,0,1,1,2,2,3,3,4,4,5,5,6,6,7,7,8,8,9,9,10,10,11,11,12,12,13,13,15,15,16,16,17,17,18,18,19,19,20,20,21,21,22,22,23,23,24,24,25,25,26,26,27,27,28,28,31,31,33,33,34,34,35,35,36,36,37,37,39,39,40,40,41,41,42,42,43,43,44,44,45,45,46,46,47,47,48,48,49,49,50,50,51,51,52,52,53,53,54,54,57,57,59,59,60,60,61,61,62,62,63,63,65,65,66,66,67,67,69,69,70,70,71,71,72,72,73,73,74,74,75,75,76,76,77,77,78,78,79,79,80,80,81,81,82,82,83,83,84,84,85,85,86,86,87,87,88,88,89,89,90,90,91,91,93,93,94,94,95,95,96,96],"right_children":[2,4,6,8,10,12,14,16,18,20,22,24,26,28,-1,30,32,34,36,38,40,42,44,46,48,50,52,54,56,-1,-1,58,-1,60,62,64,66,68,-1,70,72,74,76,78,80,82,84,86,88,90,92,94,96,98,100,-1,-1,102,-1,104,106,108,110,112,-1,114,116,118,-1,120,122,124,126,128,130,132,134,136,138,140,142,144,146,148,150,152,154,156,158,160,162,164,-1,166,168,170,172,-1,-1,-1,-1,-1,-1,-1,-1,-1,-1,-1,-1,-1,-1,-1,-1,-1,-1,-1,-1,-1,-1,-1,-1,-1,-1,-1,-1,-1,-1,-1,-1,-1,-1,-1,-1,-1,-1,-1,-1,-1,-1,-1,-1,-1,-1,-1,-1,-1,-1,-1,-1,-1,-1,-1,-1,-1,-1,-1,-1,-1,-1,-1,-1,-1,-1,-1,-1,-1,-1,-1,-1,-1,-1,-1,-1],"split_conditions":[2.5446928E-1,-5.11475E-1,1.083221E0,-2.2242107E0,-1.3670601E-1,7.2305304E-1,1.5968468E0,-8.2382417E-1,-8.5711545E-1,-3.3124092E-1,3.8099155E-2,4.2674577E-1,8.7292004E-1,1.3884338E0,2.2292648E-1,-1.1940359E0,1.1208365E0,1.7691497E0,-6.489368E-1,3.6303642E0,1.7090409E-1,-1.2822266E0,-9.7770894E-1,-1.2547748E0,6.18642E-1,1.381435E0,-9.037434E-1,1.1900737E0,1.7691497E0,-2.7860084E-1,4.915396E-2,1.7691497E0,-1.6468655E-1,-1.2655118E0,-1.1352359E0,7.3527937E0,-1.5590041E0,1.7691497E0,6.908658E-2,1.1130779E-1,-2.2815798E-1,-1.835716E0,2.5678216E-2,9.802533E-2,1.6079906E-1,-1.3332021E0,1.7691497E0,1.1748952E0,-4.8995218E-1,1.1868377E0,1.733672E0,1.0655671E0,-2.9646528E-1,1.5458325E0,3.6303642E0,1.9354545E-1,9.0980515E-2,-3.354838E-1,-2.6237655E-1,2.1919823E0,1.6773728E0,1.4797652E1,7.3527937E0,1.7691497E0,-3.660239E-2,-1.9622273E0,-9.914806E-1,2.0501611E0,-1.8253131E-1,-7.963597E-2,-2.892634E-1,5.496132E-1,1.295821E0,-9.1316596E-2,-3.809949E-2,7.17907E-1,1.2625117E0,8.4983416E-2,1.3248762E-1,1.1346555E0,-9.4125974E-1,-1.9622273E0,-1.2822266E0,8.7539244E-1,7.3527937E0,1.065776E0,4.7012436E-1,-1.0188514E0,-1.4343782E-1,1.1208365E0,8.26427E-1,7.973691E-1,1.3530335E-1,-2.052958E0,-1.2242476E0,-4.163733E-1,9.092887E-1,1.6057967E-1,9.4167516E-2,1.7451173E-1,9.298945E-2,-7.8089565E-1,-4.3171045E-1,-1.4303102E-1,-4.2041045E-2,-1.2758149E-1,-1.00886464E-1,-2.5404E-1,-1.5170869E-1,-1.7144148E-1,-8.1839226E-2,-1.1158929E-1,-2.1447904E-1,-3.9152943E-2,-1.2723348E-1,-7.00986E-2,-9.100955E-2,-6.9354214E-2,4.317989E-3,-5.365023E-2,-2.2758136E-2,-3.2244048E-1,-7.138239E-2,-2.5401318E-2,-5.709469E-2,-3.300603E-2,4.7662933E-3,3.8109858E-2,-6.2303334E-2,-4.28131E-3,3.7984256E-2,-1.27706025E-2,-3.0376006E-2,-6.004584E-2,2.5575085E-2,4.20837E-2,8.8549726E-2,-1.5287257E-2,3.4561288E-2,-5.290866E-4,-1.724514E-2,-4.1407853E-2,1.8111888E-2,1.1445107E-2,5.975802E-2,1.2843011E-1,6.74683E-2,3.483163E-2,5.3257085E-2,-6.0420353E-2,2.0344544E-3,7.051071E-2,1.3919462E-1,8.133194E-2,3.4967244E-2,8.1720315E-2,1.1359139E-1,4.7273017E-2,8.8660754E-2,1.1556081E-1,2.6477693E-2,1.7882149E-1,5.8862288E-2,6.779308E-2,2.2136595E-3,7.1604185E-2,1.5635574E-1,4.5937654E-2,1.318921E-1,1.3283883E-1,9.709624E-3,1.409127E-1,1.1809703E-1],"split_indices":[0,0,0,0,0,0,0,3,0,0,0,0,0,0,0,3,3,1,0,1,3,3,3,3,0,3,3,0,1,0,0,1,0,0,0,1,3,1,0,3,0,3,0,0,0,3,1,3,3,3,3,0,3,3,1,0,0,3,0,3,3,1,1,1,0,3,3,3,0,3,0,3,3,0,0,3,3,0,0,3,3,3,3,3,1,3,0,3,3,3,0,0,0,3,3,3,3,0,0,0,0,0,0,0,0,0,0,0,0,0,0,0,0,0,0,0,0,0,0,0,0,0,0,0,0,0,0,0,0,0,0,0,0,0,0,0,0,0,0,0,0,0,0,0,0,0,0,0,0,0,0,0,0,0,0,0,0,0,0,0,0,0,0,0,0,0,0,0,0,0,0,0,0],"split_type":[0,0,0,0,0,0,0,0,0,0,0,0,0,0,0,0,0,0,0,0,0,0,0,0,0,0,0,0,0,0,0,0,0,0,0,0,0,0,0,0,0,0,0,0,0,0,0,0,0,0,0,0,0,0,0,0,0,0,0,0,0,0,0,0,0,0,0,0,0,0,0,0,0,0,0,0,0,0,0,0,0,0,0,0,0,0,0,0,0,0,0,0,0,0,0,0,0,0,0,0,0,0,0,0,0,0,0,0,0,0,0,0,0,0,0,0,0,0,0,0,0,0,0,0,0,0,0,0,0,0,0,0,0,0,0,0,0,0,0,0,0,0,0,0,0,0,0,0,0,0,0,0,0,0,0,0,0,0,0,0,0,0,0,0,0,0,0,0,0,0,0,0,0],"sum_hessian":[1.1251E4,6.952E3,4.299E3,3.954E3,2.998E3,2.421E3,1.878E3,4.6E1,3.908E3,1.589E3,1.409E3,1.392E3,1.029E3,1.176E3,7.02E2,7E0,3.9E1,2.24E3,1.668E3,7.9E2,7.99E2,6.54E2,7.55E2,5.27E2,8.65E2,4.5E2,5.79E2,7.43E2,4.33E2,3E0,4E0,3.1E1,8E0,2.18E3,6E1,1.004E3,6.64E2,7.87E2,3E0,4.42E2,3.57E2,7.3E1,5.81E2,1.46E2,6.09E2,6E1,4.67E2,5.63E2,3.02E2,4.22E2,2.8E1,1.46E2,4.33E2,2.65E2,4.78E2,4.3E2,3E0,1.6E1,1.5E1,7.13E2,1.467E3,4.2E1,1.8E1,1E3,4E0,4.4E1,6.2E2,7.83E2,4E0,4.22E2,2E1,1.93E2,1.64E2,1.6E1,5.7E1,5.45E2,3.6E1,4.3E1,1.03E2,3.69E2,2.4E2,4.5E1,1.5E1,4.61E2,6E0,4.85E2,7.8E1,1.14E2,1.88E2,4.06E2,1.6E1,1.6E1,1.2E1,1.36E2,1E1,1.16E2,3.17E2,2.55E2,1E1,4.74E2,4E0,3E0,1.3E1,7.1E2,3E0,1.404E3,6.3E1,2.8E1,1.4E1,1.2E1,6E0,9.95E2,5E0,8E0,3.6E1,9.4E1,5.26E2,7.76E2,7E0,3.72E2,5E1,4E0,1.6E1,5.5E1,1.38E2,1.3E2,3.4E1,3E0,1.3E1,2.6E1,3.1E1,3.63E2,1.82E2,3.1E1,5E0,2.9E1,1.4E1,2.5E1,7.8E1,3.1E2,5.9E1,3E0,2.37E2,4E0,4.1E1,8E0,7E0,3.36E2,1.25E2,3E0,3E0,4.75E2,1E1,2.3E1,5.5E1,5.2E1,6.2E1,3.2E1,1.56E2,3.94E2,1.2E1,1.2E1,4E0,9E0,7E0,4E0,1.32E2,5E0,5E0,9.5E1,2.1E1,2.13E2,1.04E2],"tree_param":{"num_deleted":"0","num_feature":"6","num_nodes":"173","size_leaf_vector":"1"}},{"base_weights":[8.696242E-3,2.560163E0,-1.8677819E0,3.798356E0,1.3639277E0,-8.1923556E-1,-2.746673E0,4.3576083E0,3.0706377E0,1.9219089E0,9.143234E-1,-2.115418E-1,-1.306231E0,-2.1920862E0,-3.168838E0,4.659538E0,4.0074067E0,3.3324966E0,2.7778513E0,2.1176448E0,1.6151513E0,1.2462957E0,7.13237E-1,6.0203493E-2,-4.5444158E-1,-1.1523842E0,-1.5815543E0,-1.9736226E0,-2.4776077E0,-3.0923557E0,-6.522347E0,2.4066763E-1,4.4347205E0,2.3585354E-1,3.9531674E0,2.182327E-1,3.2406273E0,2.789576E0,5.2898128E-2,2.2536418E0,1.7749692E0,1.7331935E0,1.0240946E0,1.6555316E0,1.1532264E0,1.0195991E0,5.671541E-1,5.525494E-1,-1.5328035E-1,-2.0221134E-1,-7.7716637E-1,-6.4390516E-1,-1.2563471E0,-1.4443253E0,-2.1289868E0,-1.9035819E0,-2.5494745E0,-2.4278805E0,-3.3503408E0,-3.0593603E0,-4.3491054E0,-8.468597E0,-3.235063E0,4.0476894E0,2.306128E-1,8.6214095E-2,1.980754E-1,3.337162E0,2.8930984E0,1.4173786E-1,2.2669568E0,1.2720232E-1,2.1249678E0,7.4054337E-1,1.8963785E0,2.8274827E0,1.6898177E0,1.1009579E0,-2.8562576E-2,1.9231224E0,1.3176345E0,-2.1942608E-2,1.1881747E0,8.68492E-1,1.1491398E0,7.0038706E-1,2.5728664E-1,3.6236516E-1,1.2541811E0,-1.0677946E-1,-1.2926978E0,-1.0298951E-1,-3.9395693E-1,-7.244459E-1,-1.3388754E0,-3.192891E-1,-1.0659404E0,-1.6227193E0,-1.2146523E0,-2.563991E0,-1.4020232E0,-1.9261837E0,-2.4505494E0,-1.8565401E0,-2.1259112E0,-4.9042077E0,-2.2656403E0,-2.0916266E0,-2.5184245E0,-2.4445376E0,-3.6875818E0,-2.905748E0,-3.177267E0,-5.281576E0,-1.7001356E0,-1.0346259E1,-4.2319455E0,-1.0124757E-1,-1.9953287E-1,2.0541278E-1,7.483085E-2,1.1840755E-1,1.6822688E-1,1.3379364E-1,1.7245282E-1,1.3572139E-1,8.6801514E-2,1.0804583E-1,7.255598E-2,1.0093019E-1,-1.9942914E-1,1.5989862E-2,9.705339E-2,7.683478E-2,1.6341446E-1,9.608405E-2,7.968115E-2,-1.3248758E-2,5.8329344E-2,8.642928E-2,1.2922771E-1,4.7166612E-2,9.85865E-2,2.7504066E-2,-3.0255878E-2,5.474005E-2,7.226782E-2,3.7374076E-2,7.654218E-2,6.384264E-2,3.578579E-2,4.0690634E-2,1.1980195E-2,8.38957E-2,8.477719E-3,2.5572652E-2,3.3383023E-3,7.72097E-2,2.2023417E-2,-5.127931E-4,-3.7442524E-2,-5.360626E-3,-8.2076155E-2,3.9609047E-3,-1.7055592E-2,6.192062E-3,-2.8963897E-2,-5.129498E-2,-2.9899612E-2,-9.43655E-2,-4.203825E-2,-2.4254104E-2,8.696533E-3,-5.6268603E-2,9.3618775E-4,-3.4886637E-1,-6.396984E-2,-4.6186652E-2,-6.442037E-2,-1.4673965E-1,-7.200946E-2,-6.120283E-2,-8.047091E-2,-1.1727977E-1,-7.327863E-2,-1.04053676E-1,-1.4727847E-1,-9.411426E-2,-7.4011356E-2,-1.1446821E-1,-8.760656E-2,-8.173808E-2,-4.2786628E-1,-1.7423436E-1,-9.95973E-2,-1.0775576E-1,-6.795754E-2,-1.17873944E-1,-1.3110287E-1,-7.4469104E-2,-1.7319396E-1,-1.9905476E-1,-6.732491E-2,-1.3562995E-1,-1.504257E-1,-1.0996304E-1,-1.5939873E-1,-2.010761E-1,-3.34344E-1,-3.400408E-2,-1.0150745E-1,-6.039959E-1,-1.7013812E-1,-7.304171E-2,-2.9096073E-1],"categories":[],"categories_nodes":[],"categories_segments":[],"categories_sizes":[],"default_left":[0,0,0,0,0,0,0,0,0,0,0,0,0,0,0,0,0,0,0,0,0,0,0,0,0,0,0,0,0,0,0,0,0,0,0,0,0,0,0,0,0,0,0,0,0,0,0,0,0,0,0,0,0,0,0,0,0,0,0,0,0,0,0,0,0,0,0,0,0,0,0,0,0,0,0,0,0,0,0,0,0,0,0,0,0,0,0,0,0,0,0,0,0,0,0,0,0,0,0,0,0,0,0,0,0,0,0,0,0,0,0,0,0,0,0,0,0,0,0,0,0,0,0,0,0,0,0,0,0,0,0,0,0,0,0,0,0,0,0,0,0,0,0,0,0,0,0,0,0,0,0,0,0,0,0,0,0,0,0,0,0,0,0,0,0,0,0,0,0,0,0,0,0,0,0,0,0,0,0,0,0,0,0,0,0,0,0,0,0,0,0,0,0,0,0,0,0,0,0,0,0,0,0,0,0,0,0,0,0,0,0,0,0,0,0],"id":7,"left_children":[1,3,5,7,9,11,13,15,17,19,21,23,25,27,29,31,33,35,37,39,41,43,45,47,49,51,53,55,57,59,61,-1,63,-1,65,-1,67,69,-1,71,73,75,77,79,81,83,85,87,89,91,93,95,97,99,101,103,105,107,109,111,113,115,117,119,-1,-1,-1,121,123,-1,125,-1,127,129,131,133,135,137,-1,139,141,143,145,147,149,151,153,155,157,159,161,163,165,167,169,171,173,175,177,179,181,183,185,187,189,191,193,195,197,199,201,203,205,207,209,211,213,-1,-1,-1,-1,-1,-1,-1,-1,-1,-1,-1,-1,-1,-1,-1,-1,-1,-1,-1,-1,-1,-1,-1,-1,-1,-1,-1,-1,-1,-1,-1,-1,-1,-1,-1,-1,-1,-1,-1,-1,-1,-1,-1,-1,-1,-1,-1,-1,-1,-1,-1,-1,-1,-1,-1,-1,-1,-1,-1,-1,-1,-1,-1,-1,-1,-1,-1,-1,-1,-1,-1,-1,-1,-1,-1,-1,-1,-1,-1,-1,-1,-1,-1,-1,-1,-1,-1,-1,-1,-1,-1,-1,-1,-1,-1,-1,-1,-1],"loss_changes":[5.4274246E4,7.10984E3,6.01701E3,9.4634766E2,6.113384E2,8.814852E2,8.243711E2,1.21302734E2,6.902344E1,6.165381E1,8.943506E1,8.765791E1,6.796362E1,9.066211E1,4.9568555E2,2.2460938E0,4.5039062E0,3.611084E1,6.584961E0,2.6448242E1,2.7880615E1,1.7234375E1,3.716992E1,6.602727E1,5.680696E1,5.530005E1,4.0890503E1,3.0073486E1,2.0061035E1,6.772656E1,2.5293982E2,0E0,1.1469727E0,0E0,3.4941406E0,0E0,6.429199E0,4.58667E0,0E0,1.1689941E1,2.2570618E1,1.1668091E1,9.756035E0,5.460434E0,1.7351196E1,4.124481E0,2.3503922E1,2.4737343E1,2.2928978E1,7.4247437E0,7.915085E0,2.4592018E1,1.1233765E1,1.8506653E1,2.4069214E0,3.8754883E0,4.966034E1,1.348291E1,4.5300293E-1,2.502539E1,1.088866E2,1.6954236E2,7.7759094E0,9.205566E0,0E0,0E0,0E0,1.6191406E0,4.1674805E0,0E0,5.2958984E0,0E0,4.54541E0,1.4082477E2,1.12716675E1,1.3249817E0,4.280884E0,6.7640686E0,0E0,1.4060211E0,8.620995E0,4.675038E0,7.937256E0,9.047585E0,6.8024597E0,2.0710037E1,2.1341858E1,6.5626354E0,8.560852E0,2.606986E1,6.6791E0,1.1420788E1,1.2975771E1,1.001207E1,4.9699287E0,8.701584E0,5.22435E0,1.5018462E2,1.5689819E1,2.0031662E0,1.4724976E1,1.0863373E1,8.661957E-1,3.2426758E0,3.5270386E0,9.248465E1,2.0537292E1,3.2299194E0,1.5266113E0,6.0291824E0,9.223755E0,8.099121E0,3.7392578E0,3.4014282E1,3.0611458E0,1.7402454E2,3.4756058E1,0E0,0E0,0E0,0E0,0E0,0E0,0E0,0E0,0E0,0E0,0E0,0E0,0E0,0E0,0E0,0E0,0E0,0E0,0E0,0E0,0E0,0E0,0E0,0E0,0E0,0E0,0E0,0E0,0E0,0E0,0E0,0E0,0E0,0E0,0E0,0E0,0E0,0E0,0E0,0E0,0E0,0E0,0E0,0E0,0E0,0E0,0E0,0E0,0E0,0E0,0E0,0E0,0E0,0E0,0E0,0E0,0E0,0E0,0E0,0E0,0E0,0E0,0E0,0E0,0E0,0E0,0E0,0E0,0E0,0E0,0E0,0E0,0E0,0E0,0E0,0E0,0E0,0E0,0E0,0E0,0E0,0E0,0E0,0E0,0E0,0E0,0E0,0E0,0E0,0E0,0E0,0E0,0E0,0E0,0E0,0E0,0E0,0E0],"parents":[2147483647,0,0,1,1,2,2,3,3,4,4,5,5,6,6,7,7,8,8,9,9,10,10,11,11,12,12,13,13,14,14,15,15,16,16,17,17,18,18,19,19,20,20,21,21,22,22,23,23,24,24,25,25,26,26,27,27,28,28,29,29,30,30,32,32,34,34,36,36,37,37,39,39,40,40,41,41,42,42,43,43,44,44,45,45,46,46,47,47,48,48,49,49,50,50,51,51,52,52,53,53,54,54,55,55,56,56,57,57,58,58,59,59,60,60,61,61,62,62,63,63,67,67,68,68,70,70,72,72,73,73,74,74,75,75,76,76,77,77,79,79,80,80,81,81,82,82,83,83,84,84,85,85,86,86,87,87,88,88,89,89,90,90,91,91,92,92,93,93,94,94,95,95,96,96,97,97,98,98,99,99,100,100,101,101,102,102,103,103,104,104,105,105,106,106,107,107,108,108,109,109,110,110,111,111,112,112,113,113,114,114,115,115,116,116],"right_children":[2,4,6,8,10,12,14,16,18,20,22,24,26,28,30,32,34,36,38,40,42,44,46,48,50,52,54,56,58,60,62,-1,64,-1,66,-1,68,70,-1,72,74,76,78,80,82,84,86,88,90,92,94,96,98,100,102,104,106,108,110,112,114,116,118,120,-1,-1,-1,122,124,-1,126,-1,128,130,132,134,136,138,-1,140,142,144,146,148,150,152,154,156,158,160,162,164,166,168,170,172,174,176,178,180,182,184,186,188,190,192,194,196,198,200,202,204,206,208,210,212,214,-1,-1,-1,-1,-1,-1,-1,-1,-1,-1,-1,-1,-1,-1,-1,-1,-1,-1,-1,-1,-1,-1,-1,-1,-1,-1,-1,-1,-1,-1,-1,-1,-1,-1,-1,-1,-1,-1,-1,-1,-1,-1,-1,-1,-1,-1,-1,-1,-1,-1,-1,-1,-1,-1,-1,-1,-1,-1,-1,-1,-1,-1,-1,-1,-1,-1,-1,-1,-1,-1,-1,-1,-1,-1,-1,-1,-1,-1,-1,-1,-1,-1,-1,-1,-1,-1,-1,-1,-1,-1,-1,-1,-1,-1,-1,-1,-1,-1],"split_conditions":[-1.14586934E-1,-9.6782506E-1,6.71857E-1,-1.368169E0,-5.581864E-1,2.7381214E-1,9.7638184E-1,-1.6422833E0,-1.1459278E0,-7.255735E-1,-3.924414E-1,8.213457E-2,5.4973626E-1,8.4754443E-1,1.888534E0,-1.787629E0,8.580663E-1,6.789311E-1,3.6303642E0,9.868784E-1,9.1558886E-1,9.802533E-2,9.802533E-2,-1.1103348E-1,-6.8416856E-2,-7.3577785E-1,-2.674633E-1,-2.9998046E-1,-3.6510876E-1,1.7691497E0,-2.2242107E0,2.4066763E-1,-5.594088E-1,2.3585354E-1,8.7292004E-1,2.182327E-1,1.4643108E0,1.4265605E0,5.2898128E-2,-8.8994026E-1,1.0210277E0,-1.2591584E-1,1.5178965E0,-4.523686E-1,1.4568315E-1,-1.9416656E-1,-2.0870285E-1,9.8416805E-1,6.5329653E-1,2.1722077E-1,4.0159473E-1,4.625744E-1,-6.0478354E-1,-1.661568E0,7.416338E-1,8.166306E-1,-2.892634E-1,-1.123072E0,8.916438E-1,1.1332781E0,1.4797652E1,1.8697734E-1,6.379097E-1,-6.134994E-1,2.306128E-1,8.6214095E-2,1.980754E-1,-1.6313117E0,6.822164E-1,1.4173786E-1,-3.09742E-1,1.2720232E-1,1.5853664E0,1.4606555E-1,-1.7576948E0,-3.7352222E-1,-6.72804E-1,-1.5315853E0,-2.8562576E-2,1.1602226E0,-4.081591E-1,-4.523686E-1,7.692577E-1,-1.4087553E-1,-2.2516416E-2,9.8416805E-1,-1.5590041E0,-2.3681115E-1,2.4599258E-2,1.1989703E0,-9.021442E-2,2.3731546E-1,-5.791484E-1,3.8099155E-2,4.4492837E-2,-8.4712434E-1,1.6457611E0,2.8517553E-1,3.333712E-1,6.17187E-1,3.0080986E-1,-2.473563E-1,6.355377E-1,-3.7578407E-1,8.3680785E-1,9.986747E-2,-1.0318754E0,1.4539357E0,-3.09742E-1,4.4830996E-1,6.822164E-1,-1.0666972E0,-1.8937973E0,1.4293255E0,-1.672183E0,1.7691497E0,6.379097E-1,-1.0124757E-1,-1.9953287E-1,2.0541278E-1,7.483085E-2,1.1840755E-1,1.6822688E-1,1.3379364E-1,1.7245282E-1,1.3572139E-1,8.6801514E-2,1.0804583E-1,7.255598E-2,1.0093019E-1,-1.9942914E-1,1.5989862E-2,9.705339E-2,7.683478E-2,1.6341446E-1,9.608405E-2,7.968115E-2,-1.3248758E-2,5.8329344E-2,8.642928E-2,1.2922771E-1,4.7166612E-2,9.85865E-2,2.7504066E-2,-3.0255878E-2,5.474005E-2,7.226782E-2,3.7374076E-2,7.654218E-2,6.384264E-2,3.578579E-2,4.0690634E-2,1.1980195E-2,8.38957E-2,8.477719E-3,2.5572652E-2,3.3383023E-3,7.72097E-2,2.2023417E-2,-5.127931E-4,-3.7442524E-2,-5.360626E-3,-8.2076155E-2,3.9609047E-3,-1.7055592E-2,6.192062E-3,-2.8963897E-2,-5.129498E-2,-2.9899612E-2,-9.43655E-2,-4.203825E-2,-2.4254104E-2,8.696533E-3,-5.6268603E-2,9.3618775E-4,-3.4886637E-1,-6.396984E-2,-4.6186652E-2,-6.442037E-2,-1.4673965E-1,-7.200946E-2,-6.120283E-2,-8.047091E-2,-1.1727977E-1,-7.327863E-2,-1.04053676E-1,-1.4727847E-1,-9.411426E-2,-7.4011356E-2,-1.1446821E-1,-8.760656E-2,-8.173808E-2,-4.2786628E-1,-1.7423436E-1,-9.95973E-2,-1.0775576E-1,-6.795754E-2,-1.17873944E-1,-1.3110287E-1,-7.4469104E-2,-1.7319396E-1,-1.9905476E-1,-6.732491E-2,-1.3562995E-1,-1.504257E-1,-1.0996304E-1,-1.5939873E-1,-2.010761E-1,-3.34344E-1,-3.400408E-2,-1.0150745E-1,-6.039959E-1,-1.7013812E-1,-7.304171E-2,-2.9096073E-1],"split_indices":[5,5,5,5,5,5,5,5,5,5,5,5,5,5,5,5,0,0,1,0,0,0,0,0,0,0,0,0,0,1,0,0,3,0,0,0,0,0,0,5,0,0,3,5,0,3,5,3,0,5,0,5,0,3,3,5,0,0,5,5,1,3,3,3,0,0,0,3,3,0,3,0,3,3,3,3,5,3,0,3,5,5,3,5,0,3,3,0,5,3,5,3,0,0,3,0,3,5,5,5,3,3,5,0,5,3,3,3,3,3,3,0,3,5,0,1,3,0,0,0,0,0,0,0,0,0,0,0,0,0,0,0,0,0,0,0,0,0,0,0,0,0,0,0,0,0,0,0,0,0,0,0,0,0,0,0,0,0,0,0,0,0,0,0,0,0,0,0,0,0,0,0,0,0,0,0,0,0,0,0,0,0,0,0,0,0,0,0,0,0,0,0,0,0,0,0,0,0,0,0,0,0,0,0,0,0,0,0,0,0,0,0,0,0,0],"split_type":[0,0,0,0,0,0,0,0,0,0,0,0,0,0,0,0,0,0,0,0,0,0,0,0,0,0,0,0,0,0,0,0,0,0,0,0,0,0,0,0,0,0,0,0,0,0,0,0,0,0,0,0,0,0,0,0,0,0,0,0,0,0,0,0,0,0,0,0,0,0,0,0,0,0,0,0,0,0,0,0,0,0,0,0,0,0,0,0,0,0,0,0,0,0,0,0,0,0,0,0,0,0,0,0,0,0,0,0,0,0,0,0,0,0,0,0,0,0,0,0,0,0,0,0,0,0,0,0,0,0,0,0,0,0,0,0,0,0,0,0,0,0,0,0,0,0,0,0,0,0,0,0,0,0,0,0,0,0,0,0,0,0,0,0,0,0,0,0,0,0,0,0,0,0,0,0,0,0,0,0,0,0,0,0,0,0,0,0,0,0,0,0,0,0,0,0,0,0,0,0,0,0,0,0,0,0,0,0,0,0,0,0,0,0,0],"sum_hessian":[1.1334E4,4.803E3,6.531E3,2.359E3,2.444E3,2.979E3,3.552E3,1.331E3,1.028E3,1.089E3,1.355E3,1.326E3,1.653E3,1.538E3,2.014E3,7.08E2,6.23E2,5.37E2,4.91E2,6.61E2,4.28E2,5.09E2,8.46E2,6.26E2,7E2,1.064E3,5.89E2,8.76E2,6.62E2,1.971E3,4.3E1,4.08E2,3E2,3.8E1,5.85E2,4E1,4.97E2,4.87E2,4E0,4.69E2,1.92E2,3.55E2,7.3E1,9.1E1,4.18E2,2.71E2,5.75E2,1.89E2,4.37E2,3.94E2,3.06E2,1.82E2,8.82E2,4.74E2,1.15E2,7.85E2,9.1E1,6.3E2,3.2E1,1.924E3,4.7E1,2.6E1,1.7E1,1.02E2,1.98E2,3E0,5.82E2,3.82E2,1.15E2,4.44E2,4.3E1,1.38E2,3.31E2,2.1E1,1.71E2,1.1E1,3.44E2,7E1,3E0,4.8E1,4.3E1,1.2E1,4.06E2,1.29E2,1.42E2,4.01E2,1.74E2,1.5E2,3.9E1,4.21E2,1.6E1,2.61E2,1.33E2,2.82E2,2.4E1,1.04E2,7.8E1,8.6E1,7.96E2,1.5E1,4.59E2,7.5E1,4E1,6.56E2,1.29E2,8E0,8.3E1,1.39E2,4.91E2,1.1E1,2.1E1,8.47E2,1.077E3,3.4E1,1.3E1,1.7E1,9E0,8E0,9E0,9.9E1,3E0,1.3E1,3.69E2,8.7E1,2.8E1,2.1E1,2.2E1,3.12E2,1.9E1,1.7E1,4E0,5E0,1.66E2,4E0,7E0,9.5E1,2.49E2,3E0,6.7E1,4E1,8E0,2.9E1,1.4E1,6E0,6E0,3.02E2,1.04E2,1.11E2,1.8E1,1.08E2,3.4E1,3.21E2,8E1,9E0,1.65E2,9.9E1,5.1E1,2.8E1,1.1E1,3.67E2,5.4E1,4E0,1.2E1,1.48E2,1.13E2,3.5E1,9.8E1,8.1E1,2.01E2,1E1,1.4E1,7.8E1,2.6E1,7.4E1,4E0,4E0,8.2E1,1.64E2,6.32E2,1E1,5E0,2.51E2,2.08E2,3.7E1,3.8E1,2.6E1,1.4E1,6.1E2,4.6E1,8.6E1,4.3E1,5E0,3E0,1.3E1,7E1,1.26E2,1.3E1,2.02E2,2.89E2,7E0,4E0,1.8E1,3E0,3.04E2,5.43E2,1.4E1,1.063E3,2E1,1.4E1,4E0,9E0,1.3E1,4E0,4E0,5E0],"tree_param":{"num_deleted":"0","num_feature":"6","num_nodes":"215","size_leaf_vector":"1"}},{"base_weights":[-1.2438033E-2,-1.5448427E0,2.4446065E0,-2.1583927E0,-4.3727395E-1,1.6250015E0,3.5540905E0,-6.8117895E0,-2.1107318E0,-9.299825E-1,-6.9095306E-2,1.1450285E0,2.2661946E0,3.3115985E0,4.0882225E0,-9.734587E0,-5.0225716E0,-2.349407E0,-1.575623E0,-1.1019129E0,-8.085095E-1,-3.3600047E-1,1.6772E-1,1.0083961E0,1.5710715E0,2.0828846E0,2.3947153E0,3.1191885E0,3.544678E0,1.9557415E-1,2.1382292E-1,-1.2332136E1,-1.6666573E-1,-9.803533E-2,-5.5525165E0,-2.3180954E0,-3.7162552E0,-1.740659E0,-1.4404817E0,-9.278276E-1,-1.248543E0,-8.177102E-1,4.0196735E-2,-2.8336444E-1,-8.1189126E-1,4.788186E-2,3.52023E-1,6.4963204E-1,1.1031661E0,1.5954477E0,-1.9523453E-2,1.6930941E0,2.192295E0,2.4671004E0,2.1951542E0,2.6753876E0,3.1761796E0,1.6505478E-1,1.8317774E-1,-6.8464108E0,-8.762862E-1,-5.251966E-1,-4.3953266E0,-2.5885012E0,-2.2321072E0,-4.6647983E0,-2.8669777E0,-1.6635355E0,-1.905627E0,-1.397928E0,-2.68482E0,-1.1736686E0,-6.791952E-1,-1.1138012E0,-2.62959E0,-1.4382788E0,-7.8597504E-1,-3.2934672E-1,3.0812174E-1,-1.2558622E0,-2.3393066E-1,1.233556E-1,-1.8894891E-1,2.8696412E-1,8.7869924E-1,4.5117736E-1,1.2154722E0,1.1787136E0,8.3405715E-1,2.3169076E0,1.5431305E0,2.655654E0,1.5107179E0,2.2213936E0,1.4908901E0,2.3238618E0,2.7171552E0,-1.3081202E-1,2.3526435E0,8.62198E-2,1.3742985E-1,1.7298031E-1,3.075915E0,-5.588628E-1,-3.8948186E-2,-1.2141277E-1,-3.0662784E-1,-1.07213594E-1,-1.3070858E-1,-1.1645037E-1,-1.0630802E-1,-1.10331334E-1,-2.591616E-1,-1.8289106E-1,-2.9209822E-2,-8.840425E-2,-3.903595E-2,-9.604982E-2,-3.4669098E-2,-6.881711E-2,-1.4108698E-1,-9.135502E-2,-2.7793676E-1,-6.588028E-2,-2.389279E-2,-3.988925E-3,-4.0128205E-2,-9.3839146E-2,-4.7465447E-2,-4.3187714E-3,-1.8531133E-1,-9.3827456E-2,-2.7071148E-2,-1.7912349E-2,-4.1964114E-2,-3.4231704E-3,-1.9410938E-2,6.5939374E-2,5.560321E-3,-2.146303E-2,-2.0930679E-1,-4.5497023E-2,3.561926E-2,4.2283623E-3,5.1916104E-2,-2.3434475E-2,6.7769624E-3,2.9037926E-2,4.2485963E-3,6.668369E-2,-1.228059E-2,2.745924E-2,-2.061427E-2,4.2820696E-2,9.339077E-2,2.9355917E-2,6.1798234E-2,-2.8162238E-3,4.471422E-2,1.436112E-1,8.2636766E-2,6.698552E-2,8.954242E-2,1.631119E-1,9.388414E-2,5.693484E-2,7.90676E-2,1.0068919E-1,1.17680274E-1,-2.5091385E-2,1.0751643E-1,1.2701987E-1,1.02069594E-1,1.9984916E-1,1.3284591E-1,1.3054585E-1,5.9913393E-2,1.2947081E-1,1.5690887E-1],"categories":[],"categories_nodes":[],"categories_segments":[],"categories_sizes":[],"default_left":[0,0,0,0,0,0,0,0,0,0,0,0,0,0,0,0,0,0,0,0,0,0,0,0,0,0,0,0,0,0,0,0,0,0,0,0,0,0,0,0,0,0,0,0,0,0,0,0,0,0,0,0,0,0,0,0,0,0,0,0,0,0,0,0,0,0,0,0,0,0,0,0,0,0,0,0,0,0,0,0,0,0,0,0,0,0,0,0,0,0,0,0,0,0,0,0,0,0,0,0,0,0,0,0,0,0,0,0,0,0,0,0,0,0,0,0,0,0,0,0,0,0,0,0,0,0,0,0,0,0,0,0,0,0,0,0,0,0,0,0,0,0,0,0,0,0,0,0,0,0,0,0,0,0,0,0,0,0,0,0,0,0,0,0,0,0,0,0,0,0,0,0,0,0,0,0,0,0,0],"id":8,"left_children":[1,3,5,7,9,11,13,15,17,19,21,23,25,27,29,31,33,35,37,39,41,43,45,47,49,51,53,55,57,-1,-1,59,-1,-1,61,63,65,67,69,71,73,75,-1,77,79,81,83,85,87,89,-1,91,93,95,97,99,101,-1,-1,103,-1,-1,105,107,109,111,113,115,117,119,121,123,125,127,129,131,133,135,137,139,141,143,145,147,149,151,153,155,157,159,161,163,165,167,169,171,173,-1,175,-1,-1,-1,177,-1,-1,-1,-1,-1,-1,-1,-1,-1,-1,-1,-1,-1,-1,-1,-1,-1,-1,-1,-1,-1,-1,-1,-1,-1,-1,-1,-1,-1,-1,-1,-1,-1,-1,-1,-1,-1,-1,-1,-1,-1,-1,-1,-1,-1,-1,-1,-1,-1,-1,-1,-1,-1,-1,-1,-1,-1,-1,-1,-1,-1,-1,-1,-1,-1,-1,-1,-1,-1,-1,-1,-1,-1,-1,-1,-1],"loss_changes":[4.2610543E4,4.73525E3,3.9465996E3,9.794336E2,4.50808E2,7.6706836E2,2.2482031E2,1.8495996E2,5.630957E2,2.1118652E1,9.0080284E1,8.157446E1,1.977246E1,4.545703E1,1.4833984E0,2.2336853E2,3.7040405E1,1.2212891E2,2.779663E1,9.77887E0,9.960724E0,1.644323E1,1.6618484E1,3.610022E1,1.7287354E1,1.5048218E1,3.1027832E0,8.799316E0,3.6855469E0,0E0,0E0,1.9097107E2,0E0,0E0,9.558508E1,6.356543E1,3.984662E1,4.2720947E0,3.6134277E1,1.1486877E1,4.024063E1,1.0936096E1,0E0,1.6558315E1,1.6492687E1,8.221146E0,9.807976E0,2.511248E1,1.6279541E1,8.947449E0,0E0,1.3652863E1,3.39917E0,9.228027E0,1.3873395E2,8.701172E-1,6.352051E0,0E0,0E0,1.740379E2,0E0,0E0,5.94321E1,2.1069336E0,1.8072266E1,2.6055542E1,6.604117E1,3.7683716E1,1.9093018E0,1.8378296E1,4.8265366E1,9.306305E0,7.538471E0,2.491925E1,5.4062973E1,1.0141083E1,1.3168945E1,8.5593605E0,8.467028E0,8.736177E1,1.9859547E1,1.2185926E1,1.0172589E1,1.5669634E1,1.6805424E1,1.4795746E1,1.1947472E1,2.1716736E1,1.0430206E1,2.545807E0,1.351355E1,4.391327E-1,2.659912E-1,3.9091797E0,2.358321E1,1.2216064E1,8.187256E-1,0E0,4.717511E1,0E0,0E0,0E0,5.477539E0,0E0,0E0,0E0,0E0,0E0,0E0,0E0,0E0,0E0,0E0,0E0,0E0,0E0,0E0,0E0,0E0,0E0,0E0,0E0,0E0,0E0,0E0,0E0,0E0,0E0,0E0,0E0,0E0,0E0,0E0,0E0,0E0,0E0,0E0,0E0,0E0,0E0,0E0,0E0,0E0,0E0,0E0,0E0,0E0,0E0,0E0,0E0,0E0,0E0,0E0,0E0,0E0,0E0,0E0,0E0,0E0,0E0,0E0,0E0,0E0,0E0,0E0,0E0,0E0,0E0,0E0,0E0,0E0,0E0,0E0,0E0,0E0,0E0,0E0,0E0,0E0],"parents":[2147483647,0,0,1,1,2,2,3,3,4,4,5,5,6,6,7,7,8,8,9,9,10,10,11,11,12,12,13,13,14,14,15,15,16,16,17,17,18,18,19,19,20,20,21,21,22,22,23,23,24,24,25,25,26,26,27,27,28,28,31,31,34,34,35,35,36,36,37,37,38,38,39,39,40,40,41,41,43,43,44,44,45,45,46,46,47,47,48,48,49,49,51,51,52,52,53,53,54,54,55,55,56,56,59,59,62,62,63,63,64,64,65,65,66,66,67,67,68,68,69,69,70,70,71,71,72,72,73,73,74,74,75,75,76,76,77,77,78,78,79,79,80,80,81,81,82,82,83,83,84,84,85,85,86,86,87,87,88,88,89,89,90,90,91,91,92,92,93,93,94,94,95,95,96,96,98,98,102,102],"right_children":[2,4,6,8,10,12,14,16,18,20,22,24,26,28,30,32,34,36,38,40,42,44,46,48,50,52,54,56,58,-1,-1,60,-1,-1,62,64,66,68,70,72,74,76,-1,78,80,82,84,86,88,90,-1,92,94,96,98,100,102,-1,-1,104,-1,-1,106,108,110,112,114,116,118,120,122,124,126,128,130,132,134,136,138,140,142,144,146,148,150,152,154,156,158,160,162,164,166,168,170,172,174,-1,176,-1,-1,-1,178,-1,-1,-1,-1,-1,-1,-1,-1,-1,-1,-1,-1,-1,-1,-1,-1,-1,-1,-1,-1,-1,-1,-1,-1,-1,-1,-1,-1,-1,-1,-1,-1,-1,-1,-1,-1,-1,-1,-1,-1,-1,-1,-1,-1,-1,-1,-1,-1,-1,-1,-1,-1,-1,-1,-1,-1,-1,-1,-1,-1,-1,-1,-1,-1,-1,-1,-1,-1,-1,-1,-1,-1,-1,-1,-1,-1],"split_conditions":[2.5446928E-1,-3.9404348E-1,1.0976734E0,-2.2242107E0,-1.3670601E-1,7.2305304E-1,1.6713235E0,-4.5007965E-1,-6.813444E-1,-2.892634E-1,3.8099155E-2,6.0398036E-1,8.7292004E-1,1.3884338E0,1.8836209E0,1.7691497E0,-2.959801E-1,1.7691497E0,-5.589241E-1,-9.632046E-2,1.7691497E0,1.3204606E0,1.6079906E-1,3.2164994E-1,1.7691497E0,-7.778001E-1,6.3639486E-1,1.132421E0,-4.1677356E-1,1.9557415E-1,2.1382292E-1,-1.215777E0,-1.6666573E-1,-9.803533E-2,-3.2395814E-2,-1.2655118E0,7.3527937E0,4.7758913E-1,1.9349467E0,-7.0298254E-1,-2.9998046E-1,-1.8014065E0,4.0196735E-2,1.0654582E0,-4.645923E-2,7.38817E-1,1.3920686E0,9.408032E-1,8.8683087E-1,-1.8014065E0,-1.9523453E-2,-1.9588658E0,1.7804296E0,-6.0966548E-2,6.488098E-1,-1.4070647E0,-6.619718E-1,1.6505478E-1,1.8317774E-1,-1.6595466E0,-8.762862E-1,-5.251966E-1,6.956631E-1,-1.6006578E0,6.936369E-2,-9.823503E-1,-1.123072E0,2.3686545E-1,1.7691497E0,1.7691497E0,-4.3245873E-1,-3.092871E-1,-5.938765E-1,1.0058109E-1,4.4653636E-1,-1.9489774E-1,-1.0853132E0,-9.993304E-2,1.094152E0,-6.8416856E-2,1.7048087E0,6.3639486E-1,1.3204606E0,-3.521854E-1,1.9940549E0,6.488098E-1,2.934531E-1,-1.4860114E0,3.385583E-1,6.5329653E-1,2.661941E-1,7.795817E-1,-1.4860114E0,7.795817E-1,1.8791969E0,-5.5799115E-1,-5.074197E-2,-1.3081202E-1,1.0511823E0,8.62198E-2,1.3742985E-1,1.7298031E-1,-3.620887E-1,-5.588628E-1,-3.8948186E-2,-1.2141277E-1,-3.0662784E-1,-1.07213594E-1,-1.3070858E-1,-1.1645037E-1,-1.0630802E-1,-1.10331334E-1,-2.591616E-1,-1.8289106E-1,-2.9209822E-2,-8.840425E-2,-3.903595E-2,-9.604982E-2,-3.4669098E-2,-6.881711E-2,-1.4108698E-1,-9.135502E-2,-2.7793676E-1,-6.588028E-2,-2.389279E-2,-3.988925E-3,-4.0128205E-2,-9.3839146E-2,-4.7465447E-2,-4.3187714E-3,-1.8531133E-1,-9.3827456E-2,-2.7071148E-2,-1.7912349E-2,-4.1964114E-2,-3.4231704E-3,-1.9410938E-2,6.5939374E-2,5.560321E-3,-2.146303E-2,-2.0930679E-1,-4.5497023E-2,3.561926E-2,4.2283623E-3,5.1916104E-2,-2.3434475E-2,6.7769624E-3,2.9037926E-2,4.2485963E-3,6.668369E-2,-1.228059E-2,2.745924E-2,-2.061427E-2,4.2820696E-2,9.339077E-2,2.9355917E-2,6.1798234E-2,-2.8162238E-3,4.471422E-2,1.436112E-1,8.2636766E-2,6.698552E-2,8.954242E-2,1.631119E-1,9.388414E-2,5.693484E-2,7.90676E-2,1.0068919E-1,1.17680274E-1,-2.5091385E-2,1.0751643E-1,1.2701987E-1,1.02069594E-1,1.9984916E-1,1.3284591E-1,1.3054585E-1,5.9913393E-2,1.2947081E-1,1.5690887E-1],"split_indices":[0,0,0,0,0,0,0,2,0,0,0,0,0,0,0,1,2,1,0,2,1,2,0,0,1,2,2,0,2,0,0,2,0,0,2,0,1,2,2,2,0,2,0,2,0,2,2,2,2,2,0,2,2,2,2,2,2,0,0,2,0,0,2,2,2,2,0,2,1,1,0,0,2,2,2,0,2,0,2,0,2,2,2,2,2,2,0,2,0,0,2,0,2,0,2,2,2,0,0,0,0,0,2,0,0,0,0,0,0,0,0,0,0,0,0,0,0,0,0,0,0,0,0,0,0,0,0,0,0,0,0,0,0,0,0,0,0,0,0,0,0,0,0,0,0,0,0,0,0,0,0,0,0,0,0,0,0,0,0,0,0,0,0,0,0,0,0,0,0,0,0,0,0,0,0,0,0,0,0],"split_type":[0,0,0,0,0,0,0,0,0,0,0,0,0,0,0,0,0,0,0,0,0,0,0,0,0,0,0,0,0,0,0,0,0,0,0,0,0,0,0,0,0,0,0,0,0,0,0,0,0,0,0,0,0,0,0,0,0,0,0,0,0,0,0,0,0,0,0,0,0,0,0,0,0,0,0,0,0,0,0,0,0,0,0,0,0,0,0,0,0,0,0,0,0,0,0,0,0,0,0,0,0,0,0,0,0,0,0,0,0,0,0,0,0,0,0,0,0,0,0,0,0,0,0,0,0,0,0,0,0,0,0,0,0,0,0,0,0,0,0,0,0,0,0,0,0,0,0,0,0,0,0,0,0,0,0,0,0,0,0,0,0,0,0,0,0,0,0,0,0,0,0,0,0,0,0,0,0,0,0],"sum_hessian":[1.1315E4,6.969E3,4.346E3,4.484E3,2.485E3,2.501E3,1.845E3,4.4E1,4.44E3,1.062E3,1.423E3,1.432E3,1.069E3,1.274E3,5.71E2,1.5E1,2.9E1,3.068E3,1.372E3,4.36E2,6.26E2,6.69E2,7.54E2,1.087E3,3.45E2,4.48E2,6.21E2,7.06E2,5.68E2,3.06E2,2.65E2,1E1,5E0,5E0,2.4E1,3.002E3,6.6E1,6.12E2,7.6E2,2.03E2,2.33E2,6.23E2,3E0,6.04E2,6.5E1,4.58E2,2.96E2,2.29E2,8.58E2,3.41E2,4E0,1.02E2,3.46E2,4.47E2,1.74E2,8.6E1,6.2E2,1.96E2,3.72E2,6E0,4E0,3E0,2.1E1,7.17E2,2.285E3,2.9E1,3.7E1,4.25E2,1.87E2,7.37E2,2.3E1,1E2,1.03E2,2.14E2,1.9E1,2.8E1,5.95E2,5.61E2,4.3E1,3.6E1,2.9E1,3.48E2,1.1E2,2.65E2,3.1E1,1.71E2,5.8E1,6.67E2,1.91E2,2E1,3.21E2,1.4E1,8.8E1,3.3E2,1.6E1,2.91E2,1.56E2,5E0,1.69E2,8E0,7.8E1,1.53E2,4.67E2,3E0,3E0,1.1E1,1E1,4.4E1,6.73E2,1.182E3,1.103E3,6E0,2.3E1,2.7E1,1E1,3.79E2,4.6E1,1.84E2,3E0,7.28E2,9E0,1.9E1,4E0,8.2E1,1.8E1,1.8E1,8.5E1,3.6E1,1.78E2,6E0,1.3E1,1.8E1,1E1,6.7E1,5.28E2,1.04E2,4.57E2,6E0,3.7E1,2.9E1,7E0,1.7E1,1.2E1,3.35E2,1.3E1,5.9E1,5.1E1,1.07E2,1.58E2,2.2E1,9E0,1.54E2,1.7E1,3.9E1,1.9E1,6E1,6.07E2,1.2E1,1.79E2,9E0,1.1E1,1.8E2,1.41E2,6E0,8E0,1.7E1,7.1E1,1.35E2,1.95E2,4E0,1.2E1,1.6E2,1.31E2,4E0,1.52E2,1.37E2,3.2E1,5.8E1,4.09E2],"tree_param":{"num_deleted":"0","num_feature":"6","num_nodes":"179","size_leaf_vector":"1"}},{"base_weights":[1.4941978E-2,2.293993E0,-1.6978741E0,3.4223661E0,1.225478E0,-7.8111905E-1,-2.5264902E0,3.9086387E0,2.715581E0,1.760652E0,8.170946E-1,-1.8409735E-1,-1.1578494E0,-2.020881E0,-2.9287736E0,2.169354E-1,3.724996E0,2.9570165E0,2.4636874E0,1.9611576E0,1.4491466E0,9.8749137E-1,4.4192103E-1,2.338449E-1,-4.2639172E-1,-9.355192E-1,-1.4374651E0,-1.783706E0,-2.324341E0,-2.8468778E0,-6.2790914E0,3.8410733E0,3.4075112E0,1.9592147E-1,2.8758073E0,2.7246838E0,2.1613214E0,2.1192482E0,1.5570226E0,1.6884885E0,1.1259406E0,1.3506669E0,8.870615E-1,8.072959E-1,1.5881637E-1,5.8821553E-1,3.7185512E-2,-2.1925837E-1,-8.064961E-1,-3.6371115E-1,-1.0366238E0,-1.3111199E0,-1.9111357E0,-1.6152526E0,-1.9190558E0,-2.2398162E0,-2.871054E0,-2.6551583E0,-2.9406433E0,-7.8675857E0,-2.676831E0,2.2346734E-1,3.7740126E0,2.0661043E-1,3.3103724E0,3.0270803E0,2.671347E0,2.744409E0,3.9530355E-2,-9.1213363E-1,2.293456E0,2.4395034E0,1.9992177E0,-1.3906494E0,1.7144365E0,1.3703921E-1,1.6212349E0,1.1621732E0,-3.850339E-2,2.1418586E0,1.23033E0,1.0238838E0,7.315866E-1,9.208095E-1,3.9969727E-1,2.9617456E-1,-4.57588E-1,3.178972E-1,8.566173E-1,-2.0427521E-2,6.591429E-1,-1.7070557E-1,-1.729006E0,-7.313039E-1,-1.2747164E0,6.4082104E-1,-4.812869E-1,-1.9003723E0,-9.671932E-1,-2.130824E0,-1.2832121E0,-1.451582E0,-2.0815954E0,-1.6355023E0,-8.4288555E-1,-1.8592337E0,-2.2078583E0,-2.2568543E0,-7.4402267E-1,-4.819578E0,-2.6580958E0,-2.4146976E0,-2.7748172E0,-8.4890775E-2,-2.9504316E0,-1.9635415E-2,-8.998616E0,-6.920191E-2,-1.5060125E-1,1.9072966E-1,1.5383773E-1,5.3112395E-2,1.6667196E-1,9.613884E-2,1.532177E-1,1.4161064E-1,1.1929023E-1,1.5976584E-1,1.3072781E-1,-3.2185844E-1,1.1805242E-1,1.1933142E-1,9.465208E-2,1.2702289E-1,5.2238513E-2,1.0448996E-1,7.302787E-2,4.218523E-2,-2.4890533E-1,-1.7880898E-2,8.7628625E-2,9.019392E-2,6.606651E-2,5.9566345E-2,-2.0035582E-2,1.2077965E-1,5.197475E-2,5.9160072E-2,1.203377E-1,-1.8477375E-2,5.2306302E-2,4.5500606E-2,2.398033E-2,9.192695E-2,4.3455437E-2,2.4649544E-2,-3.1574327E-2,5.409878E-2,1.07325595E-2,1.2225782E-3,-5.1868547E-2,4.5526708E-3,5.3801574E-2,7.503825E-2,3.440322E-2,2.3364417E-2,-5.3623966E-3,5.040997E-2,1.6532987E-2,-1.033411E-2,4.002949E-2,-9.979012E-2,-2.3568278E-2,-4.745764E-2,-2.4205644E-2,-7.402291E-2,3.3244878E-2,-3.347807E-3,4.022065E-2,-2.8243074E-2,2.8193383E-2,-3.8212538E-2,-1.4879383E-1,-3.4743514E-2,-5.3154E-2,-1.2186891E-1,-3.518435E-2,-5.688051E-2,-7.195558E-2,-5.24882E-3,-7.983249E-2,-1.2613682E-1,-9.34454E-2,-6.606915E-2,-8.4677696E-2,-6.42187E-2,6.036606E-4,-1.0528811E-1,-8.874475E-2,-1.5867034E-1,-1.0372623E-1,-3.193472E-2,-1.1320889E-1,-2.816147E-3,-6.963208E-2,-7.005094E-2,-3.5041213E-1,-9.018972E-2,-1.4324851E-1,-8.429443E-2,-1.2743613E-1,-1.3626897E-1,-1.6680108E-1,-1.4589341E-1,-1.68983E-1,-4.7677913E-1,-1.8182032E-1],"categories":[],"categories_nodes":[],"categories_segments":[],"categories_sizes":[],"default_left":[0,0,0,0,0,0,0,0,0,0,0,0,0,0,0,0,0,0,0,0,0,0,0,0,0,0,0,0,0,0,0,0,0,0,0,0,0,0,0,0,0,0,0,0,0,0,0,0,0,0,0,0,0,0,0,0,0,0,0,0,0,0,0,0,0,0,0,0,0,0,0,0,0,0,0,0,0,0,0,0,0,0,0,0,0,0,0,0,0,0,0,0,0,0,0,0,0,0,0,0,0,0,0,0,0,0,0,0,0,0,0,0,0,0,0,0,0,0,0,0,0,0,0,0,0,0,0,0,0,0,0,0,0,0,0,0,0,0,0,0,0,0,0,0,0,0,0,0,0,0,0,0,0,0,0,0,0,0,0,0,0,0,0,0,0,0,0,0,0,0,0,0,0,0,0,0,0,0,0,0,0,0,0,0,0,0,0,0,0,0,0,0,0,0,0,0,0,0,0,0,0,0,0,0,0,0,0,0,0,0,0,0,0,0,0,0,0],"id":9,"left_children":[1,3,5,7,9,11,13,15,17,19,21,23,25,27,29,-1,31,33,35,37,39,41,43,45,47,49,51,53,55,57,59,61,63,-1,65,67,69,71,73,75,77,79,81,83,85,87,89,91,93,95,97,99,101,103,105,107,109,111,113,115,117,-1,119,-1,121,123,125,127,-1,129,131,133,135,137,139,-1,141,143,-1,145,147,149,151,153,155,157,159,161,163,165,167,169,171,173,175,177,179,181,183,185,187,189,191,193,195,197,199,201,203,205,207,209,211,-1,213,-1,215,-1,-1,-1,-1,-1,-1,-1,-1,-1,-1,-1,-1,-1,-1,-1,-1,-1,-1,-1,-1,-1,-1,-1,-1,-1,-1,-1,-1,-1,-1,-1,-1,-1,-1,-1,-1,-1,-1,-1,-1,-1,-1,-1,-1,-1,-1,-1,-1,-1,-1,-1,-1,-1,-1,-1,-1,-1,-1,-1,-1,-1,-1,-1,-1,-1,-1,-1,-1,-1,-1,-1,-1,-1,-1,-1,-1,-1,-1,-1,-1,-1,-1,-1,-1,-1,-1,-1,-1,-1,-1,-1,-1,-1,-1,-1,-1,-1,-1,-1,-1],"loss_changes":[4.400528E4,5.8272324E3,4.8867227E3,7.97084E2,5.416343E2,6.8722156E2,6.810742E2,9.289258E1,5.0677246E1,6.395996E1,8.96875E1,1.20016785E2,1.14918945E2,1.034751E2,4.9704102E2,0E0,2.2375977E1,2.5996582E1,3.1265625E1,3.792505E1,3.069397E1,3.395752E1,4.5598785E1,3.0230871E1,5.876982E1,6.0012573E1,4.6724365E1,1.5858398E1,2.3326416E1,2.4655273E1,2.2966077E2,1.2264648E1,4.724121E0,0E0,5.3237305E0,7.0906982E0,9.4010864E1,1.2553467E1,8.918552E1,1.2246826E1,1.3574463E1,1.6831177E1,1.5306274E1,8.429634E0,2.1371098E1,1.0856091E1,1.0146368E1,3.5213184E1,8.161713E0,1.9071735E1,5.1189026E1,1.19539795E1,1.0098816E1,4.3794556E0,3.5048828E0,1.2598389E1,2.1297424E1,1.0447266E1,9.416016E0,2.491565E2,1.8916931E0,0E0,5.9375E0,0E0,8.724365E0,3.9821777E0,1.9538574E0,5.643921E0,0E0,1.9645053E2,3.1497803E0,1.4165466E1,1.3377441E1,8.476999E1,1.4831665E1,0E0,9.902405E0,8.803497E0,0E0,4.989128E0,6.939392E0,1.29444275E1,1.5655045E1,5.248451E0,4.5303917E0,1.2834688E1,1.2982657E1,1.3371582E1,7.108612E0,1.0938784E1,2.284563E0,1.6634552E1,3.8455353E0,1.1782738E1,1.5033001E1,2.0959797E0,1.2809414E1,7.6775406E1,2.062799E1,6.720627E0,1.258728E1,9.4296875E0,6.3865356E0,4.26239E0,4.6721907E0,4.0039062E0,2.4186707E0,4.9594727E0,3.3451066E0,4.1714966E1,8.150513E0,1.5987549E1,1.4829102E0,0E0,6.461914E0,0E0,3.8869873E1,0E0,0E0,0E0,0E0,0E0,0E0,0E0,0E0,0E0,0E0,0E0,0E0,0E0,0E0,0E0,0E0,0E0,0E0,0E0,0E0,0E0,0E0,0E0,0E0,0E0,0E0,0E0,0E0,0E0,0E0,0E0,0E0,0E0,0E0,0E0,0E0,0E0,0E0,0E0,0E0,0E0,0E0,0E0,0E0,0E0,0E0,0E0,0E0,0E0,0E0,0E0,0E0,0E0,0E0,0E0,0E0,0E0,0E0,0E0,0E0,0E0,0E0,0E0,0E0,0E0,0E0,0E0,0E0,0E0,0E0,0E0,0E0,0E0,0E0,0E0,0E0,0E0,0E0,0E0,0E0,0E0,0E0,0E0,0E0,0E0,0E0,0E0,0E0,0E0,0E0,0E0,0E0,0E0,0E0,0E0,0E0,0E0,0E0,0E0,0E0],"parents":[2147483647,0,0,1,1,2,2,3,3,4,4,5,5,6,6,7,7,8,8,9,9,10,10,11,11,12,12,13,13,14,14,16,16,17,17,18,18,19,19,20,20,21,21,22,22,23,23,24,24,25,25,26,26,27,27,28,28,29,29,30,30,31,31,32,32,34,34,35,35,36,36,37,37,38,38,39,39,40,40,41,41,42,42,43,43,44,44,45,45,46,46,47,47,48,48,49,49,50,50,51,51,52,52,53,53,54,54,55,55,56,56,57,57,58,58,59,59,60,60,62,62,64,64,65,65,66,66,67,67,69,69,70,70,71,71,72,72,73,73,74,74,76,76,77,77,79,79,80,80,81,81,82,82,83,83,84,84,85,85,86,86,87,87,88,88,89,89,90,90,91,91,92,92,93,93,94,94,95,